3731 32
recentija_atr_funny_0 -0.036018796 -0.3500031 0.5956132 0.41173732 -0.28581914 -0.80586714 0.8396441 0.702209 0.25358286 0.12401944 0.35491356 -0.3711866 0.07203634 -0.7194612 -0.728367 -0.12181257 0.040155105 0.78734815 -0.3943823 -0.19855225 -0.09515041 0.6105946 0.14570704 -0.4708019 0.4128395 -0.19293608 -0.004508164 0.68918836 -0.31042254 0.12076596 -0.7764583 0.3278061
recentija_atr_useful_0 0.5263078 -0.6960094 0.7912248 0.550132 -0.16138296 -0.6086415 0.75583243 0.063545644 -0.023924628 0.053203613 0.59712625 -0.5431124 -0.18480512 -0.6636684 -0.72370666 -0.22930326 0.30396444 0.9663717 -0.33306277 -0.656581 -0.062818296 0.7919079 0.08328611 -0.11478223 0.2640687 -0.45477912 -0.3884615 0.26632956 -0.64367735 -0.00975783 -0.92698026 0.2383001
recentija_atr_stars_5 0.022931136 -0.18671848 1.0789396 0.4732166 -0.08695592 -0.81928235 1.04773 0.08284097 -0.356183 -0.011838059 0.31733403 -0.49061003 0.7385447 0.19928342 -0.9146803 -0.036886044 -0.5134068 1.1483734 -0.53350043 -0.043876417 -0.7030068 0.606399 0.48970175 -0.13296184 0.32374164 0.2321723 -0.16171221 0.5193295 -0.3146086 0.59721464 -0.18782938 0.2473041
recentija_atr_stars_4 0.04666808 -1.1798768 0.63304454 0.39550096 -0.6071709 0.13344543 0.66173255 0.9279195 0.7041919 -0.3476004 0.23823443 -0.40189058 -0.3268608 -0.7753035 0.13854672 -0.10058524 -0.50099146 0.9010246 -0.06521267 0.122975856 0.5857786 1.0712236 -0.14642435 -0.5057641 0.20680453 -0.5561443 0.09472665 0.36424705 0.3535818 -0.052007247 -0.8315328 0.78740495
recentija_atr_useful_1 -0.4034213 -0.03181514 0.2989272 -0.01646509 -0.030871797 -0.7860391 0.8787199 1.131435 0.16947143 0.34046897 -0.17392786 -0.29652593 0.48395142 -0.7763858 -0.8760474 -0.03131745 -0.9179117 0.83917075 0.21474034 0.67711 0.097171664 0.5791867 0.530297 -0.28520748 0.09684364 0.4669119 0.8701649 0.9027113 0.3863481 -0.15785283 -0.50691867 0.5739215
u_atribut_photos_0.0 -0.4333897 -0.741103 0.47796798 0.28285283 -0.09797574 -0.36112955 1.2839191 0.4844884 0.048914 0.6148437 0.36049077 -0.45619258 -0.51872575 0.9113506 -0.06938023 -0.3027014 -0.2528712 0.08122815 -0.48997813 0.16017829 0.03876295 0.8774841 0.5010971 0.41897458 -0.323699 0.5310838 -0.2275996 0.12354733 0.2265289 -0.84217966 -0.9345337 0.24520718
u_atribut_list_0.0 -0.3727483 -0.74857557 0.47847688 0.30291975 -0.09204127 -0.31292787 1.2438343 0.4737065 0.054085165 0.6260296 0.3938395 -0.45716283 -0.55165064 0.93115544 -0.07942337 -0.30724394 -0.24593902 0.057081502 -0.50490797 0.17397434 0.000279933 0.86127734 0.52194154 0.39656183 -0.3215166 0.5181325 -0.19943537 0.13283846 0.217437 -0.83606774 -0.97034985 0.25648424
u_atribut_profile_0.0 -0.43306354 -0.7551917 0.50592923 0.28395346 -0.12512983 -0.3304669 1.2770642 0.4646808 0.023379289 0.6274362 0.3764699 -0.45265618 -0.5521911 0.8903955 -0.035517536 -0.26571485 -0.23088439 0.10823846 -0.47425294 0.13040985 0.014354451 0.8794489 0.5061573 0.40731913 -0.34226793 0.5472578 -0.18927878 0.132761 0.23134044 -0.83610296 -0.90259695 0.22627363
u_atribut_cute_0.0 -0.34938893 -0.748232 0.47446847 0.3038809 -0.1137367 -0.32980052 1.2257522 0.46330464 0.03858261 0.63371813 0.3436037 -0.44437462 -0.53719676 0.9228058 -0.06235179 -0.30061385 -0.23639937 0.0861908 -0.48141074 0.14090846 0.02965494 0.8573047 0.5482869 0.42083377 -0.3103627 0.5547359 -0.21605827 0.12117555 0.28233173 -0.809935 -0.9298625 0.20706894
u_atribut_hot_0.0 -0.69623697 -0.9419506 0.47571027 0.26938123 -0.25163302 -0.6735809 1.6956055 0.24750626 0.043001674 0.79753643 0.61793953 -0.39762414 -0.73830193 0.61996555 -0.20292407 -0.5418178 -0.08848657 0.06648687 -0.07941646 0.30610833 -0.08446982 0.93917084 0.39797956 0.70075923 0.040221274 0.6875533 -0.5095274 0.101234496 0.04653883 -0.7355327 -0.764383 0.54777104
u_atribut_note_0.0 -0.49096727 -1.0915052 0.33351418 0.32276016 -0.32367742 -0.65646106 1.5208131 0.094530575 -0.022013295 0.8919603 0.60264736 -0.37137556 -0.69110733 0.43005532 -0.20406288 -0.7207147 -0.035140667 -0.22214592 -0.17301562 0.533564 -0.23643441 1.1136683 0.50495094 0.51906925 -0.11328839 0.75346184 -0.55414486 0.20861219 0.19219634 -0.58378255 -0.6707853 0.58152807
u_atribut_writer_0.0 -0.6793473 -0.9668689 0.50056267 0.45450997 -0.35983208 -0.42490798 1.4077678 0.23546079 -0.030632725 0.8694937 0.63429725 -0.4412658 -0.5977675 0.61216086 -0.2885831 -0.57737935 -0.007497199 -0.24471161 -0.07041356 0.48551512 -0.016992142 0.81390995 0.3701559 0.7061151 0.16887325 0.81510663 -0.5220984 0.11094668 0.12090469 -0.6685771 -0.66755843 0.5460951
u_atribut_more_0.0 -0.80221516 -1.2285577 0.48825392 -0.079885595 0.12482507 -0.5584268 1.7204419 0.28674567 0.12337403 0.84605575 0.7440318 -0.26948845 -0.4404598 0.3120401 -0.2705297 -0.623054 -0.015434428 0.03660316 -0.23873879 0.43267974 -0.177042 0.8914545 0.55832815 0.6528833 0.08964352 0.6660334 -0.43200555 -0.13930447 -0.16907296 -0.4895056 -0.87462187 0.5386882
u_atribut_funny_0.0 -0.47425047 -0.5388621 0.44663617 0.49705938 0.027464109 -0.7712133 1.6066197 0.49783134 0.16274247 0.46822515 0.3443118 -0.15883146 -0.45695657 0.4372304 -0.15334734 -0.770018 -0.10143145 -0.31967226 -0.028166758 0.19658852 -0.23203737 1.2774452 0.3591215 0.6289388 -0.0385135 0.9914295 -0.8808182 0.07718294 -0.05726292 -0.90290886 -0.82464445 0.13175736
recentija_atr_funny_1 0.21640038 -1.3244292 0.45333582 0.18394919 0.67992604 -0.40650752 0.5788172 0.5774633 -0.5096554 -0.61073244 -0.31031922 -1.234248 0.37719208 -0.55450433 0.4183388 0.24845503 -1.036296 1.2904341 0.57959336 -0.027170895 -0.37972042 1.0516794 0.6747548 0.94970626 -0.5017745 0.49227875 1.0783173 0.26424792 0.2928911 -0.030029977 0.105980605 0.7657463
recentija_atr_stars_3 -0.19416493 -0.6659108 0.089778155 0.17707558 0.68873453 -1.4951613 1.080222 0.7035349 0.10269881 -0.63791513 -0.081571974 -1.3688759 -0.46598014 -0.95040417 -0.13797903 0.9405933 0.288703 0.8438487 0.76323766 0.15451105 -0.35449186 -0.5381005 0.4490629 -0.35538447 -0.29336226 0.027834425 -0.0544535 0.7540091 -0.40197352 -0.6377393 -1.797896 -0.21557829
u_atribut_plain_0.0 -0.5448258 -1.1812564 0.36881706 0.40484884 0.07511374 -0.81724906 1.6146477 0.12889764 -0.5348042 0.94192344 0.5757602 -0.2492752 -0.6518871 0.42162576 -0.32353866 -0.4621317 -0.13044547 -0.28318876 0.09241189 -0.15092964 -0.31872723 0.9633155 0.31906047 0.3547618 0.6302973 1.0424908 -0.86442107 -0.10530535 0.44363192 -0.8294018 -0.8586945 0.9732176
u_atribut_cool_0.0 -0.6908943 -1.165563 0.43633133 0.44415987 0.08527943 -0.5391846 1.8085771 0.12825096 -0.1806229 0.5935142 0.6760715 0.016299551 0.0767383 0.601938 -0.2773703 -0.8058291 0.48389646 -0.19099149 -0.1689309 0.51773846 -0.15278123 1.1337948 0.09381488 0.53914833 0.14314109 0.83067715 -0.9544313 0.28914452 0.7630451 -1.0547776 -0.43639252 0.3337073
dan_Wednesday 0.30539787 0.038738843 1.4625999 0.41479653 0.63124365 0.20024304 -0.09341864 -0.12928668 0.12227232 0.10992773 0.49162444 -0.06825698 -0.29359502 -0.32574502 0.053616278 0.14500582 0.1076149 -0.3936276 -0.17948152 0.9275923 0.15087338 0.22203802 0.6708728 -0.10772685 0.36526194 -0.4663522 -0.92666537 0.11255956 0.1820955 -0.5112608 0.22260962 0.6671671
dan_Thursday 0.34455213 0.0034654941 1.4351215 0.45120698 0.67993814 0.21617554 -0.10810932 -0.09248488 0.17886774 0.12091229 0.4645894 -0.087493 -0.32121754 -0.28590676 0.095027044 0.12895866 0.100851946 -0.38617834 -0.21092585 1.0181671 0.05227421 0.26172253 0.6918141 -0.09741807 0.3583408 -0.43333715 -0.9480777 0.08915682 0.16800272 -0.44531983 0.21668924 0.59752643
dan_Friday 0.44946402 0.069156565 1.4190063 0.38421726 0.8102794 0.18104485 -0.17617033 -0.13863312 0.089763194 0.30869767 0.52250063 -0.20411396 -0.3280467 -0.31574255 0.19477598 0.13001408 0.1386253 -0.36888072 -0.25133923 0.86001146 0.059807405 0.18433122 0.64824367 -0.02191664 0.33659536 -0.28211135 -0.99296814 0.079123445 0.13580027 -0.47535983 0.1589613 0.5268408
dan_Tuesday 0.31417075 0.05886655 1.4514682 0.37769055 0.7367856 0.16021489 -0.05083484 -0.14189984 0.081829704 0.17879467 0.51593006 -0.08271355 -0.25029674 -0.3294959 0.14751858 0.17144336 0.08022959 -0.4197105 -0.21928331 0.90319955 0.16375987 0.16685088 0.7001146 -0.08841379 0.3501794 -0.38097152 -0.954791 0.10210182 0.22170287 -0.47313535 0.23682897 0.61832064
u_atribut_fans_0.0 -0.7521272 -1.3150859 0.2839602 0.6244259 -0.22740887 -0.55986726 1.3834662 -0.005390273 0.13141392 1.1609503 0.5830806 -0.2238445 -0.3653983 -0.11783813 -0.72884345 -0.42705724 -0.046543986 -0.007821995 0.19443123 0.14513764 -0.2890668 0.64517593 0.86507326 0.86374426 -0.27331266 0.897881 -1.0062975 0.3260706 0.63452244 -0.9693101 -0.70067626 0.34020472
dan_Monday 0.28089824 0.049146604 1.3735648 0.35920838 0.7078078 0.18649277 -0.035138786 -0.16235442 0.1666406 0.05831262 0.42030066 -0.1406552 -0.24826698 -0.42242327 0.09106949 0.12790707 0.06571033 -0.44170094 -0.14632964 1.0600495 0.05315532 0.20688644 0.6442691 -0.027898235 0.34589124 -0.4772438 -0.9757041 0.12554772 0.21967041 -0.54841375 0.2244211 0.70151323
u_atribut_average_rate_low -0.11850753 -0.89176005 0.053691186 -0.1994637 -0.4300823 -0.47928604 1.9960104 0.6943222 -0.029751476 0.73377466 0.15662497 -0.6622799 -1.0462284 0.78663164 0.02046475 0.043795962 0.02410533 -0.029644106 -0.64729893 -0.017441144 0.4871592 0.7306306 0.6432968 0.67329025 -0.09426258 0.56993175 0.005306816 0.71915835 -0.38321343 -1.532992 -0.36845672 0.0104478495
atribut_Accepts Credit Cards 0.041179866 0.23729509 1.3165612 0.31187394 -0.021213733 0.18235882 -0.32915682 0.43778002 -0.34297216 0.14434114 0.056813963 -0.50154597 0.102308996 -0.6275201 -0.23655033 0.3670154 0.05500439 0.4404509 0.1448853 0.546623 0.7106705 0.10406009 0.6773755 0.08289347 0.13623773 0.12987293 -0.37110516 -0.0018128908 -0.35310936 -0.64347726 0.11393564 0.32776192
dan_Saturday 0.5382004 0.3325135 1.5354954 0.5130433 0.7735601 0.2662564 -0.118816465 -0.24326217 -0.07749253 0.2116878 0.34740645 -0.55432856 -0.49044347 -0.27086812 0.18086174 0.2902551 0.22528157 -0.19714728 -0.0935884 0.82097596 -0.18316047 0.08562563 0.7554639 -0.11029463 0.2000157 -0.21737617 -0.94905305 0.12318816 -0.19233315 -0.689611 0.122841954 0.33622545
atribut_Price Range 0.082436666 0.2911741 1.3003944 0.36510637 -0.013709304 0.18105873 -0.36096644 0.4906941 -0.31912458 0.19920084 0.0251421 -0.50792485 0.050765608 -0.6732197 -0.2129333 0.374791 0.012463811 0.44564247 0.15747307 0.5266166 0.6567938 0.15933779 0.7349529 0.114558004 0.08666737 0.13884573 -0.33041257 -0.0021813721 -0.34478074 -0.6802184 0.14192744 0.33303887
atribut_validated 0.106225476 0.30233634 1.3834795 0.3922732 -0.071782984 0.16002195 -0.32277668 0.45289308 -0.32579073 0.1146941 0.044906504 -0.4994985 0.008632031 -0.7152086 -0.12765102 0.3553307 0.09484225 0.44384253 0.17390874 0.5497411 0.7407565 0.12588218 0.7685419 0.1210219 0.039596446 0.1592551 -0.34511694 0.037335273 -0.32325327 -0.7400416 0.16245626 0.34613204
atribut_street 0.087705284 0.3090886 1.3594043 0.36834413 -0.07487633 0.2148778 -0.3060078 0.45949626 -0.29014668 0.15145734 0.058598846 -0.518899 0.030508697 -0.71651113 -0.12433901 0.3442618 0.067590624 0.45407262 0.13759129 0.5848282 0.7445863 0.13695593 0.684978 0.12083353 0.0989591 0.15113527 -0.3760244 0.040548623 -0.36403835 -0.6838417 0.14962834 0.3215987
atribut_lot 0.085384525 0.33379966 1.3581115 0.3786736 -0.08147899 0.1941994 -0.30266282 0.46390253 -0.28720233 0.12209551 0.047013953 -0.50574696 -0.009304007 -0.69983244 -0.1644837 0.37248987 0.12555815 0.46384415 0.111989185 0.56754625 0.7292863 0.10431312 0.73533726 0.087158784 0.12320653 0.14062637 -0.39829645 0.029304484 -0.37293348 -0.7434078 0.15235743 0.32219875
atribut_vrednost_Accepts Credit Cards_true 0.060606584 0.28825733 1.2863406 0.3899527 0.049600814 0.11095193 -0.30983126 0.5300939 -0.34669596 0.17670599 -0.049012136 -0.48889247 0.0715164 -0.6953235 -0.2354604 0.35969657 0.08565578 0.42712218 0.1476202 0.5063953 0.7020532 0.13053022 0.6581553 0.10020016 0.09890885 0.09765403 -0.31989473 -0.006140017 -0.3192499 -0.7235561 0.12263962 0.36382952
atribut_valet 0.0616441 0.2962732 1.3522787 0.37901446 -0.07518921 0.16788013 -0.31523272 0.48593965 -0.27535987 0.12961932 0.02457334 -0.50789297 0.015929531 -0.6908949 -0.110673904 0.37150285 0.07451068 0.47991264 0.146292 0.5233239 0.68990076 0.13780645 0.7472412 0.12482685 0.12613834 0.14039521 -0.34115654 0.07004114 -0.36208832 -0.6999503 0.17765969 0.37325487
atribut_vrednost_validated_false 0.075575694 0.33736745 1.3416572 0.37329677 -0.0583899 0.1745417 -0.29650232 0.43102464 -0.30954424 0.16402158 0.04584325 -0.534576 -0.009644572 -0.7308476 -0.14897105 0.3401061 0.07011191 0.44439176 0.1474957 0.57569516 0.71355575 0.08980306 0.7443242 0.14366002 0.06897274 0.14992176 -0.41143784 -0.0027809145 -0.33124366 -0.7240306 0.15141134 0.34624267
atribut_garage 0.09895135 0.29223633 1.3661001 0.34873265 -0.077676386 0.12770587 -0.34386542 0.43162474 -0.264059 0.13627122 0.06417415 -0.52139205 0.02680693 -0.6900256 -0.13015278 0.36357155 0.086040944 0.47906733 0.1379682 0.5664692 0.740616 0.11818985 0.7281306 0.11308005 0.11492428 0.14296874 -0.36108577 0.024691934 -0.37504497 -0.74360645 0.12049095 0.3183394
recentija_atr_useful_2 -1.3369597 -0.94283825 1.5777601 0.7153912 0.23093162 -1.0019156 0.59540266 0.9296378 0.16223441 -1.0163968 0.21710697 -1.3543164 -0.15078957 -0.50155675 0.7095971 1.0110438 -0.7863049 -0.32434314 -0.69892657 -0.30054057 -0.23857844 1.191298 0.42136672 -0.022943253 -0.01775509 -0.3985209 0.29640618 0.50293255 -0.10469899 0.61013764 0.02428202 -0.64396346
u_atribut_average_rate_high -0.69140035 -0.8928914 0.23089057 0.9418014 0.35351425 -0.28153396 0.70109874 -0.11498709 0.18102613 0.5459425 0.5243053 -0.56740594 0.43426314 1.0580193 -0.107821144 -0.72903436 -0.8980542 0.03168632 -0.066950485 0.5247531 -0.24413188 1.3786697 0.67757887 -0.066068724 -0.13712421 0.4317394 -0.5444042 -0.22963463 0.44949022 -0.23855866 -1.4149594 0.16567872
atribut_vrednost_valet_false 0.11743287 0.3116891 1.3280271 0.28638846 -0.18997827 0.14835511 -0.19617027 0.43072808 -0.36990497 0.31678447 0.04032281 -0.4131104 0.09722884 -0.7257411 -0.064338885 0.4870836 0.00794208 0.42017776 0.2229523 0.52425486 0.875293 0.051596247 0.81365424 0.26189393 -0.0737841 0.050770257 -0.4821779 0.08280378 -0.40106466 -0.840692 0.23251858 0.22521906
atribut_vrednost_street_false 0.044747487 0.36179802 1.3006402 0.4183079 -0.1770983 0.19836031 -0.26377672 0.45175368 -0.35362592 0.040429696 0.046076205 -0.5236261 0.05349654 -0.6573712 -0.26607957 0.41524303 0.09171696 0.49706948 0.22788095 0.5466489 0.68517065 0.11337127 0.71368647 0.088737145 0.07724271 0.13703492 -0.47273782 -0.05260042 -0.35661846 -0.71961457 0.14077857 0.51180756
dan_Sunday 0.66462046 0.19411002 1.479927 0.46980357 0.65733147 -0.012073342 -0.20068693 -0.10589012 0.3395732 0.020768585 0.12851477 -0.62083566 -0.88738763 -0.83609855 -0.0892862 0.22958317 0.30037242 0.057740763 0.26932362 0.88241935 -0.24120244 0.24823825 0.43559673 0.14024594 0.5965295 -0.2287557 -1.1093047 0.39743638 -0.12981828 -1.0534285 0.3748572 0.3092714
atribut_vrednost_garage_false -0.043274425 0.24052121 1.3741055 0.458497 -0.1770462 0.17741399 -0.004554533 0.2631393 -0.33836928 0.27012998 0.08354077 -0.23419492 0.37379545 -0.86805207 -0.03506779 0.45096076 -0.062468685 0.6412131 0.24917684 0.7065351 0.8542999 0.13830101 0.86488366 0.41229683 0.00067028496 0.13358687 -0.30092168 0.045782723 -0.37436554 -0.88125104 0.51849884 0.12554345
u_atribut_uv_funny_0.0 -1.0965041 -1.0467869 0.096853085 -0.22657321 -0.023270804 -0.7444096 1.313596 0.25340033 -0.7695427 1.4584398 0.74943 0.29095793 -0.31741053 0.11634192 -1.1356189 -0.26016572 -0.20056616 0.02886919 0.0929513 0.17159414 0.32718503 1.5520927 -0.1282248 -0.37452143 -0.5753875 1.3059822 -1.3396142 0.12903586 -0.12782535 -0.69843256 -0.67815435 0.12558089
atribut_By Appointment Only 1.3540077 -2.2083733 1.0660527 -0.13884552 0.23367284 -0.6038916 0.11117191 0.8409267 -0.18800423 0.58421963 0.16224384 0.04452992 0.90731466 0.30047572 -0.8646813 0.58848417 -0.19812849 -0.151992 -0.86325246 1.248052 0.7917621 0.43502536 0.94888496 0.40991825 1.7287438 -0.50728935 -0.008892091 -0.34130388 -1.0151689 -0.3373722 1.345564 1.0354593
recentija_atr_stars_1 0.21655793 -1.1143028 0.08378221 -0.15400663 1.0461808 -1.3173453 0.51411945 1.230825 0.0025258085 0.5971471 0.23540866 -0.673442 0.03706986 -1.2472283 0.81935275 0.49292743 -0.051389445 0.4518032 -1.208578 -0.5753371 0.6433953 0.40215072 -0.09842643 0.39391252 1.3103422 1.4864479 0.09413806 0.26739946 -0.07666306 -0.28831422 -0.33951083 0.30062506
biznis_atribut_stars_4 0.56373596 -0.29675737 1.2099215 0.57661116 -0.16165316 -1.0484601 -0.18375857 0.6723551 0.008820813 -0.7779226 -0.4235682 -0.16504695 0.08192203 -0.47872606 -0.29716578 -0.03804376 -0.11817588 0.36685944 -0.17417966 0.3555518 0.771049 -0.55424106 1.1510615 -0.44289488 0.29682145 -0.32908335 -0.94884115 -0.124404214 0.5740301 -0.82754487 0.060870644 0.63737404
atribut_Wheelchair Accessible 0.056875214 0.35189122 1.5400453 0.4391525 0.12702659 0.11038783 -0.34993294 0.32976672 -0.28775403 0.180265 -0.19878376 -0.5875463 -0.089927614 -0.5952601 0.095578365 0.34145442 0.1025982 0.44519845 0.4250704 0.57378155 0.4918318 0.12917022 0.6657 0.070989825 0.26101413 0.2872007 -0.53242904 0.27690274 -0.1449907 -0.67222023 0.1189694 0.5482808
atribut_vrednost_Wheelchair Accessible_true 0.043158703 0.37764052 1.537858 0.43767282 0.037366506 0.1545881 -0.31244537 0.37422702 -0.29909688 0.10399441 -0.25688106 -0.6435906 -0.13490087 -0.5765612 0.028634584 0.3225713 0.13935748 0.47828707 0.4120754 0.6488405 0.5286661 0.12210482 0.6077066 0.063011214 0.34887916 0.2743359 -0.5734755 0.30206823 -0.15375826 -0.7092245 0.18731177 0.5656099
u_atribut_funny_1.0 -0.6035277 -1.1498332 0.04609945 -0.17144725 -0.11965346 0.20187187 1.2373328 0.175031 -0.36027232 1.2081087 0.25840968 -1.4328847 -0.673793 1.1405462 0.0851478 0.67273945 -0.3802905 0.7312428 -0.9757856 0.4014528 0.18006402 0.8382483 1.0646982 0.13534144 -0.38123247 -0.3739501 0.4146334 0.25841454 0.56717676 -0.56158745 -0.92989963 0.3717355
atribut_vrednost_Price Range_2 0.32799205 0.36496451 1.1440715 0.7394308 0.46978214 -0.040250417 -0.43068165 0.5608418 -0.32495046 0.7070248 -0.012254839 -0.3486503 0.03652498 -0.88268435 -0.110282764 0.023358798 0.11095914 0.30993918 0.355892 0.17884825 1.0297577 0.47542185 0.62643594 0.37099645 -0.18538637 -0.19016163 -0.45357904 0.07646048 -0.3013892 -0.95389026 0.36210096 0.14476293
recentija_atr_stars_2 -0.10323869 -0.12238855 -0.60276896 0.15276732 0.832387 -1.2556612 0.9302554 1.704398 0.31928158 -0.29153857 0.6133905 -1.190214 -0.7554885 -0.59243774 -1.4311898 0.041207276 -0.53790176 0.04355438 0.25944915 -1.2999821 0.8034275 1.1718712 0.60317886 0.6040723 -0.085085556 -0.40947148 -0.39005503 0.6714291 -0.19153824 0.22124992 0.53037685 1.2146329
u_atribut_more_1.0 0.10797451 -0.08229585 -0.040403888 0.91201365 -0.7434924 -0.09860121 1.0394977 1.0108287 -0.031161757 0.41926754 -0.42468128 -1.0661874 -0.46137768 1.4714661 0.09998422 0.6078281 -0.7516653 0.4177375 -0.69382024 0.07288992 0.1744764 1.6060607 0.75471973 0.28191394 -0.8266916 -0.04482638 -0.12997589 0.48685616 0.5616968 -1.4862809 -0.85789746 -0.35923666
atribut_vrednost_lot_true -0.3285695 0.14924191 1.389856 0.6400482 0.015967907 0.15115999 0.3129603 0.08428468 -0.38139254 0.17483395 0.13661844 0.06397856 0.47820193 -0.6803711 0.089560255 0.3854151 -0.09838455 0.6279174 0.5992607 0.46015793 0.6630944 0.057100136 0.8242255 0.53886956 0.1271715 -0.0472026 -0.7494068 0.2172176 -0.14090379 -0.9703436 0.90938765 0.5611694
u_atribut_writer_1.0 -0.24904752 -0.28756854 0.12368022 0.03212173 0.3212228 -0.4510587 2.0338202 1.35762 0.123971656 0.3065174 -0.21851341 -0.9309437 -0.41163844 0.9158194 0.30480435 0.81637347 -0.6870019 1.1919484 -1.1836362 0.018495834 -0.31815478 1.9000404 0.74722916 -0.20096654 -1.1232889 -0.32499287 -0.13314125 0.09191845 0.6155814 -0.90888435 -1.5653853 -0.31716374
u_atribut_note_1.0 -0.5015708 -0.13645002 0.08381884 0.38527682 0.07096356 0.25072297 1.4147432 1.2662992 0.06818701 0.11678041 -0.26922402 -0.9975114 -0.19251584 1.1538173 0.13100979 0.82635754 -0.648731 1.1329597 -1.0389043 -0.14620063 0.4979146 1.2814829 0.72720164 0.37179115 -0.2392651 0.013737766 0.06969082 -0.32416257 0.064757794 -1.1612896 -1.3276471 -0.47071564
biznis_atribut_stars_5 0.009022557 0.32131934 1.5495632 0.15369736 0.6171108 1.940683 0.13396955 -0.18391573 -1.530125 1.5865301 1.2918516 -0.08045596 1.5887985 0.035086807 -0.62886906 0.8415777 -0.28824618 -0.30908263 -0.24972807 2.1103194 0.1856056 1.6969208 0.28026727 -0.16697055 0.20750447 0.05462886 -0.19495939 0.11893673 -1.1215721 0.30705655 0.84630173 0.26006684
recentija_atr_useful_3 -0.3496816 -1.0152633 0.43019965 0.32665962 1.4971716 0.5324611 0.48157606 1.8195695 1.0674822 -0.24439079 0.023809204 -1.8127563 1.0711626 0.42669162 0.15109043 0.7779893 1.2164229 1.1615334 0.2996584 -0.11118264 -0.26364657 1.0983502 0.53493744 0.13799994 1.0423473 0.24878359 -0.21567705 0.08215689 0.03375325 0.66279554 -0.8191667 0.78074664
u_atribut_fans_2.0 -0.2250361 -0.2674 0.50256884 0.5943907 -0.015817322 0.47366294 1.4284563 0.89020646 0.19324072 0.5428154 -0.003556446 -1.5734212 -0.14143889 0.32545227 0.089656115 0.825805 -0.49139398 0.23555224 -1.0536547 -0.3797805 0.023968222 1.3511264 0.85886574 0.20842572 -1.4259162 0.03582607 -0.32362083 0.43992934 0.6013011 -0.48948 -1.4829165 -0.12495619
u_atribut_fans_1.0 -0.5461353 -0.55360407 -0.49687016 -0.6779731 0.17709063 -1.0301685 2.0489032 0.47693378 -0.65600294 0.19318439 0.15108119 -0.6358192 -0.8533819 1.8589308 0.9121655 -1.0237496 -0.25866964 0.18463546 -0.5863046 1.5168171 0.29588217 2.4065742 -0.28996658 -0.4687403 1.6223168 0.15333757 0.03721207 -0.44777358 -1.1349989 -0.62584317 -0.54753 0.121997796
atribut_Good for Kids 0.55296254 0.4723435 1.6274416 0.1453317 0.09041767 -0.25278488 -0.2558184 0.8290949 -0.9560873 0.18138345 0.39614 -0.012986302 -0.3328723 -0.007823163 -0.25142747 -0.051673792 0.5391846 0.38498965 0.6140369 0.6395494 0.6661927 0.36938158 0.60150033 -0.49837694 0.11480909 0.2262254 -0.48494232 0.3123344 0.0072402856 -0.46141797 0.06900516 0.34538534
recentija_atr_funny_2 -0.5005686 -0.8181726 1.7341821 -0.5636557 1.654543 0.103728406 1.7479379 1.2121146 1.0793781 -0.4828967 -0.069227375 -0.6581332 0.61095524 0.4121163 0.4376556 1.6339824 -1.7051547 -0.28173846 1.1345564 -0.5542011 1.2818782 0.24582262 0.2632324 -0.073265895 0.7034016 0.08135838 -0.56164247 0.8186172 0.07992213 0.019931255 -0.88706595 -0.31981906
u_atribut_cool_1.0 -0.82760364 -0.69491494 -0.5888138 0.10530834 -0.7125107 -0.8417684 1.5172735 0.16752295 0.38700175 1.8356545 0.16329089 -1.4333755 -2.267243 -0.0925493 -0.061918207 0.031918712 -1.6449838 0.17622317 0.42087412 0.32819876 -0.19115797 1.2775549 1.8830384 0.6419703 0.6637603 0.568274 -0.30752823 -0.000585475 -1.6266643 0.07790396 -1.1158384 0.41719204
u_atribut_uv_cool_3.0 -0.564257 0.04167224 -0.35741296 1.0392014 -0.6073216 -1.1491181 3.5354939 -0.7295741 0.63873935 0.24550614 0.021964876 -1.2372645 -0.7102832 0.43602297 0.2627156 -0.3585549 0.13391083 0.15809569 -0.22962493 0.8201725 0.6506521 1.0000043 1.6898521 0.33923376 0.85430884 -0.1872097 -0.20367725 -1.4176377 1.1313292 -0.19929585 -0.28702033 0.43050456
u_atribut_hot_1.0 -0.07385481 -0.05348906 0.09762463 0.2430867 0.10249034 0.48015076 1.0847818 1.202904 -0.085014865 0.5438822 -0.26381236 -1.0785681 -0.15596777 0.7311819 0.23001665 0.84366965 -0.58576745 0.74805325 -1.2734326 0.38399377 -0.13044833 1.5275304 1.0097058 -0.10339775 -1.0212603 -0.03510453 0.10107298 0.07898916 0.60476935 -0.80408883 -1.4912944 -0.28559005
u_atribut_uv_funny_3.0 -0.27963373 -0.49835712 0.34720832 -0.3358224 -0.07545465 0.19915849 1.4615299 1.6156576 -0.43097132 0.4613964 -0.038669553 -1.570102 -0.56085104 0.7294522 0.34491432 0.6062737 -0.74719155 0.90370643 -1.082605 0.10244127 0.057772312 1.1584028 0.36990967 -0.42082897 -1.2434813 -0.0077028633 -0.13263878 0.019663403 -0.026178632 -0.66163266 -1.5419234 -0.121804036
u_atribut_uv_cool_4.0 -0.4074777 -0.5779952 0.3711362 -0.11954346 0.17737174 0.30623835 1.4134269 1.6620559 -0.2754547 0.43111274 -0.11197362 -1.4461179 -0.38555104 0.7704889 0.18849593 0.86147153 -0.7904075 0.99233943 -1.2012706 0.042790953 -0.054878063 1.4396853 0.02605657 -0.4870639 -1.3615067 0.25410613 -0.17960517 0.35523123 -0.040214315 -0.6844282 -1.6471841 -0.2832511
u_atribut_plain_2.0 -0.10127714 -0.1596742 0.48503312 0.15858546 -0.05519129 0.12492844 1.6874382 1.1855148 -0.37142512 0.6402265 -0.11577386 -1.4714963 -0.028357659 0.57072043 0.57383966 1.1585385 -0.5288217 0.5043393 -1.1827356 -0.15761557 -0.16328713 1.6164112 0.37976792 -0.28891554 -0.79209256 0.17134087 0.4331362 -0.3094171 0.35359967 -1.0351441 -1.6821731 0.19553155
u_atribut_uv_useful_4.0 -0.46281758 -0.32306483 0.33354306 -0.1787648 -0.2481488 0.18622717 1.6951663 1.4609749 -0.1564548 0.7296393 0.09567626 -1.6024511 -0.48063898 0.81732553 0.3834128 0.7866689 -0.64232665 1.2373064 -0.9463868 -0.038499523 0.48054886 1.2744375 0.16251227 -0.64348537 -1.1985574 0.18003894 0.07881168 -0.27737018 0.074187785 -0.80263525 -1.2658052 -0.27750474
u_atribut_plain_1.0 -1.4220673 -0.7307955 -0.77376026 0.048371833 -0.42291045 0.1859298 1.3746567 0.2483483 0.9376938 0.24127893 0.26427 -0.6580915 -0.4647572 0.6776251 -0.46934742 -0.94305956 -0.105298795 0.47058907 -0.2524456 2.0803182 0.2708337 1.7284707 1.5053418 1.3730482 -0.7940831 -0.41147605 -0.8802041 1.0822467 -0.7856665 -0.38732034 -0.15349342 -1.1540064
u_atribut_review_count_4.0 -0.7870159 -0.42489335 0.16807237 0.7823937 0.12168103 0.16896737 2.3524652 1.3019265 -0.41520378 0.7602616 0.11920945 -1.1540263 -0.86979246 0.66314983 0.25054443 0.6427539 -0.110568866 1.5279653 -0.9564006 -0.27923077 0.24412401 1.237258 0.45903927 -0.54815316 -1.3325716 -0.32995242 0.37045133 -0.5021126 0.28377405 -1.1315949 -0.93767 -0.020083785
u_atribut_cool_2.0 -0.31008807 -0.15188743 0.3884357 0.38765723 0.193097 0.4545302 1.5103908 1.0759389 -0.38517308 0.006915849 -0.22429004 -1.2129549 0.35136437 0.88897336 0.25806898 0.77387285 -0.27981538 0.7322191 -1.4204345 0.20421167 0.12974137 1.4202945 0.4244907 -0.09226646 -1.1037092 -0.03145156 0.16612615 -0.031683307 0.68633854 -1.1107907 -1.5302768 -0.23315981
u_atribut_review_count_3.0 0.5997476 -1.3759133 -0.10900886 -0.6721443 -0.52958965 -0.6315975 1.7446465 -0.2344447 1.1465394 -0.65833443 -0.13888974 -2.218313 0.19783759 0.79714894 -0.6329119 -0.35825807 -1.090066 -0.3895794 -0.33292302 1.1070709 -0.6209462 1.6589997 0.39084703 0.98566043 0.94299453 1.2621479 -1.464301 0.41632864 0.29654473 0.034790475 -1.9764557 0.39993963
u_atribut_uv_cool_2.0 0.028835556 -1.5070819 -0.4062886 -0.2780092 0.49346095 0.57753533 0.53411835 0.5662164 0.2806206 0.9270791 1.2475066 -0.38760868 0.3031861 0.36823937 -0.19164073 -0.25071365 -0.29057002 -0.5627634 0.86655164 0.71963036 -1.6410983 2.9107494 0.23473626 1.5520338 0.30256635 0.89024824 -1.0943948 2.0891778 -1.0022193 -1.5639944 -1.5190874 0.13114284
u_atribut_review_count_2.0 -1.7637355 0.17008348 -0.4931013 0.8850942 0.32863477 -0.3619406 2.112611 -0.22770126 -0.39087784 1.5940846 1.9099147 0.91998833 -0.50772095 -0.5363572 0.585789 0.31347921 -0.0052984976 -0.8199441 -0.18165402 1.0410115 0.05109259 1.8595892 1.5975535 0.54551435 0.58092344 -0.35589102 0.041519668 0.8428677 0.45518914 -1.1601615 -0.6552995 -0.9216411
u_atribut_uv_funny_2.0 -0.657113 -0.60734016 -0.6806678 1.2720352 0.49416843 -0.33803117 2.3069944 -1.2505805 1.3616866 0.7065749 0.36191493 -0.62065375 -0.6988244 0.81792736 -0.19425595 1.0521486 0.27015233 0.85145164 -0.26022136 1.2337332 0.05778811 2.0240889 0.19324018 0.44102144 0.42835224 0.8483329 -0.1614769 0.22023807 0.87457126 -0.4456387 -0.27014118 0.31161782
u_atribut_uv_useful_3.0 -0.17192285 -1.0476851 -0.53156614 1.6987671 0.94738513 -0.30722162 2.2262075 -0.39677197 0.3018583 -0.37019965 -0.33626547 -0.7734962 -0.88916016 0.14296027 -0.6369768 0.04133069 -0.6815675 -1.0796022 -0.6147886 1.3119482 -0.6485795 1.01859 0.57140565 1.383524 0.122044966 -0.18945181 -0.6624141 0.8765028 0.1715517 -0.20776431 -1.4688494 0.8989097
u_atribut_uv_useful_1.0 -0.5837445 -1.7097536 0.1187945 -0.59506446 0.5629877 -2.4163313 1.2875736 1.3358178 -0.8360305 1.4795614 1.3723772 -0.20742361 -0.475992 -0.17891067 -0.19579452 -0.4201485 -0.93296367 -1.2155535 0.0797665 0.6259992 -0.7956399 1.8878632 -0.31540725 -0.25318968 -1.4877743 -0.50035745 -1.6803553 0.8141979 0.89158154 -0.7337751 -0.6504583 -0.3894191
u_atribut_uv_funny_1.0 -0.3789063 -1.6445502 -0.2049097 0.379527 -0.44760585 -0.28059945 1.4255788 1.3946074 -1.032289 0.23368636 0.24624272 -1.2567121 -0.21959671 -0.3439884 0.67985374 -1.9261621 -0.4423428 -1.0922011 0.105840676 0.4268247 -0.9913355 0.8317169 1.9589885 1.7484274 1.5973854 0.26647595 -0.9212816 0.32476577 -0.1349776 -0.78356653 -1.0986251 0.11029401
u_atribut_uv_useful_2.0 -1.3477658 -0.87810826 -0.62535983 -0.6645001 -1.1408044 0.23619625 1.1732719 0.38759828 0.033767276 1.0515587 1.096395 -0.7900938 -0.06746247 0.62675107 0.08004409 -0.2857946 0.99727994 0.79471 0.40703484 0.36205626 -0.043002687 2.1807423 2.1410627 0.36349878 2.0159795 1.8085134 -0.5412968 -0.2116821 0.14451937 -0.63610256 -0.37446854 -0.19508943
biznis_atribut_review_count_0.0 1.4295182 -1.9018667 1.0990223 0.012223085 0.29218027 -1.9186358 -0.48231044 0.02669393 -0.46608534 2.4566858 -1.0325286 -0.4579178 1.9813412 -0.9690083 -1.6746476 2.6814039 -0.3945617 0.05932583 -1.3597748 2.3423777 2.1167223 0.98899996 0.73346657 -0.3480887 -0.9059727 -1.6859488 -0.14754191 -1.0087537 -0.20748222 0.20485955 -0.5426677 0.3818713
atribut_vrednost_lot_false 0.52766895 0.40062878 1.0828354 -0.15617932 -0.22490558 0.21159351 -0.92783356 0.8101255 -0.37574497 0.13135807 0.1021573 -1.2374779 -0.15350081 -0.86451 -0.24695615 0.28622648 0.21606605 0.06081238 -0.6366612 0.95868343 0.93614227 0.31944156 0.748189 -0.73471797 0.05538994 0.5338482 -0.007752465 0.0618481 -0.7079324 -0.64708996 -0.5843229 -0.17358169
biznis_EWMwV5V9BxNs_U6nNVMeqw 0.620334 -0.94682914 0.8812947 -0.4980247 1.1681755 0.5867113 0.038407248 -0.14487107 -0.083967626 0.11819233 -0.575377 -1.6080042 -0.029066585 -0.6364592 -0.88274086 -0.025897684 -0.1150559 0.62145346 0.89537597 1.1404568 1.3650972 0.103354886 0.5135338 0.048653834 -0.14271964 -0.040302206 -0.3144628 0.02484182 1.130772 -0.75372946 0.7817347 -0.6704159
atribut_vrednost_By Appointment Only_false 1.6111332 -2.1508284 1.2089562 -0.27413788 -0.59059423 -0.7053974 0.7143068 0.6942117 0.14984076 0.79066855 -0.043362312 -0.44511408 0.004448819 -0.34103194 -0.6299307 0.6392213 -0.02711111 0.025991354 -1.0823996 2.0963202 0.76153827 0.3517547 0.96952933 0.84505606 1.5440888 -0.5402192 -0.39555836 -0.55575746 -1.6611276 -0.20568345 2.1787891 0.31914726
u_atribut_review_count_1.0 -1.7345222 -2.6053665 0.017093534 0.24169965 0.1564907 -1.0321261 0.81825733 0.49721688 -1.0922945 1.0785098 -0.92061687 -0.927741 -0.8184115 1.3952646 0.2472823 -0.81501156 0.98693097 0.094005756 0.7558923 -0.3253883 -0.22666393 1.4985876 0.9135987 -0.5343836 0.06331656 1.0961189 -1.5458559 0.8686632 -0.6716413 -0.61034393 0.007574813 0.2903317
u_atribut_uv_cool_0.0 -0.36471057 -0.46865958 0.29962155 0.043127656 0.40917844 -1.1126218 1.9021566 -0.61489135 -1.5613267 2.0475895 0.18933265 -1.0913166 0.778462 -0.23615137 -0.23856051 -1.1818091 0.259624 -0.9597193 -0.02686396 -0.3230139 1.2335378 1.6212296 0.033760227 -0.06575627 -1.0584513 0.72401655 -0.68630195 -0.55329114 -0.22047307 -1.3583689 -0.76431674 0.5177935
biznis_2e2e7WgqU1BnpxmQL5jbfw 0.18484873 -0.17402561 0.54128176 -0.47682327 0.4224674 -0.3919715 -0.50237274 -1.0697306 0.14340873 0.015720908 0.077226035 -0.2510644 0.34268683 -0.20030138 0.3660192 1.1350741 -0.5578219 0.30500233 0.24230187 -0.36646914 0.63609624 1.527641 1.2731988 -0.98080146 -0.21144472 0.041648492 -0.32916 0.116782986 -0.23072177 0.032679748 -0.06245069 0.29678538
biznis_4bEjOyTaDG24SY5TxsaUNQ 0.44819832 -0.49807015 -0.319833 0.67560667 1.0974616 0.42940822 -0.3590012 0.21034828 -0.34309113 -0.32988024 -0.14970313 -0.63014907 0.05865781 0.2059635 -1.8418574 0.09596748 0.8715057 0.4860247 0.5959251 0.31572402 0.9230898 0.5667886 0.8205133 -1.1250397 -0.03690427 0.010223334 -0.1979728 -0.24490754 0.39586967 -0.3178766 -0.13862604 -0.02575825
u_atribut_review_count_0.0 0.9712522 -1.6939704 -0.093163386 0.55992365 -0.026101874 -0.29761028 2.0008183 0.66184336 -1.2168702 1.3350009 1.469073 -0.22148423 0.32650322 -0.3543526 -0.8246933 -0.95679545 -1.7861129 -0.60924864 -0.4897123 0.52448165 0.47862995 1.068805 -0.7433754 0.5003764 -0.661485 1.6260973 -1.0338625 -1.0271842 0.29913884 -1.0662206 -0.3111716 0.44464812
atribut_vrednost_By Appointment Only_true 1.0177457 -1.7993449 1.0337214 0.701569 1.609069 -0.48890802 -0.28263986 1.0916132 -1.0991149 0.31170288 0.001088773 0.419581 2.2228816 0.97220165 -0.9678275 1.0685713 -0.35535118 -0.90058607 -0.9879346 0.5047794 1.2180171 0.71139663 1.3046438 -0.45906138 1.4716839 -0.5404277 0.58226526 0.7460337 -0.63685465 -1.0665392 0.33387327 2.3232527
biznis_zt1TpTuJ6y9n551sw9TaEg 1.170874 -0.5154923 0.1945098 0.05352291 1.5469776 0.31525445 0.614451 0.30659232 0.12423168 -1.3407744 0.62959355 0.61240023 -0.47027725 -0.7068877 -0.15004967 0.76964056 -0.416756 -0.2096701 -0.21309148 0.27635303 1.0489395 0.18359384 1.2243495 -0.6200381 0.45826593 0.9287825 0.2407553 0.40374535 -0.22853842 -0.22114822 -0.13773964 -0.4789637
u_atribut_uv_useful_0.0 -0.69305056 -1.7149205 0.078277215 0.74030495 0.045398343 0.2700076 1.8110676 -0.6041937 -1.5138452 0.80432373 -0.26922858 -0.18009506 -0.26077342 -0.044234235 -0.6908527 -1.0879519 -0.576593 0.2583734 0.16973203 -0.13716961 1.1690539 1.0507737 0.0047434536 -0.03315653 0.039988704 2.1371253 -1.1326257 -0.5552595 -0.86121786 -0.8851161 -0.6466149 0.08350105
u_atribut_uv_cool_1.0 -1.788622 -3.0491962 -0.40165225 0.55142766 -0.75211596 -0.9486824 1.4668483 1.5300235 -1.070565 0.7328169 1.0752265 0.47389042 -1.560735 0.28194007 -0.6829169 -0.27989408 -1.0378859 0.2644721 -0.5956349 0.76845247 0.14591807 0.30925468 1.0115193 -0.89317375 0.6847135 1.7066199 -1.4701302 0.0479662 0.40830737 0.07947001 -0.089216575 -1.060783
biznis_WNy1uzcmm_UHmTyR--o5IA 0.022176787 0.3542652 1.1532848 -0.8145862 0.65967065 -0.0053390097 0.04423207 -0.7326234 -0.76477 0.14395462 -0.8746912 -0.561682 0.2227544 -0.8529063 -0.29036134 0.67137986 -0.37889847 0.33019188 0.034572985 0.78113097 0.86421174 1.0607778 0.33633843 -0.04150756 0.460831 0.4347648 -1.0867736 0.07538986 0.50542843 -0.7019616 0.4911554 -0.49494228
biznis_DO3Gk17RyJVW7zYMCtYPnw 1.086518 -0.33154026 0.25575066 0.760709 1.3275293 0.04181104 -0.32657465 0.6024222 0.004212515 -0.122766614 0.31650877 -1.0389061 -0.2257819 0.24414498 0.012812296 0.26334012 -0.11100911 -0.09146361 0.32197484 0.79606926 1.6562234 0.51028156 0.89357173 -0.10396047 0.54379445 -0.02739566 0.13087931 0.6223643 0.25544855 1.3058702 -0.26233226 -0.2232374
biznis_lliksv-tglfUz1T3B3vgvA 0.43370214 0.6892076 0.34416017 0.76209676 0.2902074 -0.062010195 0.48874855 -0.036686197 -0.3595733 -0.4659028 -0.5320005 0.3984343 -0.79590994 -0.78352726 0.030670542 1.4159677 0.1745508 -0.4943501 0.8753717 0.6726021 1.2818508 1.6654807 0.8993296 -0.34367934 0.37873805 0.24400619 -0.8049786 0.0509978 -0.528682 0.5335122 0.0016773065 0.08278068
biznis_eq6lQI039SBLC6sHm3idGA -0.18466371 0.057575576 -0.058835514 -0.38130793 -0.018872736 -0.9888915 -0.58475816 0.016618174 -1.2548275 -1.3844593 1.1998554 -0.49726734 0.08870814 -0.07966175 -0.4459532 1.3359196 -0.90146327 0.09558222 0.029809272 0.45579252 0.99936914 0.45975956 0.8573324 -0.09158187 1.0748674 -0.7940799 -0.17129235 -0.08638486 0.2798546 -0.6536608 -0.5789144 -0.33858976
biznis_CZjcFdvJhksq9dy58NVEzw -0.04118092 -0.61792654 0.36894447 -0.21093687 0.2216602 0.27724475 0.42511657 0.31231284 -1.4843856 -1.1670419 -0.3536289 -0.8315785 0.24689677 -0.19074902 -0.6605313 0.7471227 0.44456154 -0.18797883 0.19552732 1.2048079 1.3554809 -0.12243023 0.9283037 -0.257762 -0.34218833 -0.8374074 -0.13008109 0.4388222 0.35663825 0.171707 -0.27486408 -0.22885394
biznis_tFU2Js_nbIZOrnKfYJYBBg 1.0014831 -0.28529862 0.099088624 0.96686566 0.48999378 0.759699 0.6617168 0.8005254 -0.25544652 -1.1923517 0.28664148 -0.8390266 -0.45136052 -0.5587413 -0.19303931 -0.102975406 0.9189173 -0.0784906 0.42510718 0.85127723 0.935361 0.04998416 1.4427786 -0.5199058 -0.72507197 0.5157238 -0.044596653 0.2349755 -0.4217594 0.5614088 0.43167093 -0.34898177
biznis_Xhg93cMdemu5pAMkDoEdtQ 0.29556817 -0.63402474 -0.15025797 0.06122962 0.9039299 -0.31464973 -0.43191788 -0.37192962 0.9353647 -0.6360381 1.2479346 -0.25149414 0.3528967 -0.5073941 0.19016704 0.39840996 0.8830353 0.22449844 0.19587204 0.20515735 1.5448874 0.51027817 1.266092 -0.5496574 -0.6470058 0.8813185 0.04631554 0.23225029 -0.6710754 -0.04919677 -0.14985776 0.6068008
biznis_AkOruz5CrCxUmXe1p_WoRg 0.51133484 0.4339553 0.29072106 0.51518834 0.24165253 -0.68303615 -0.7294348 -0.10264592 -0.5977322 -0.4660427 -0.6293622 -0.1387119 -0.5698207 -1.1178706 0.11814181 1.6574708 -0.6843517 -0.05729042 0.47538108 0.96193653 1.1203685 1.744187 0.7129955 0.3858074 1.2800559 0.24430946 -0.6694254 -0.15843837 0.2451677 0.1212279 -0.6595909 -0.531363
biznis_xfwRO04KbAPw_zRotCfWQQ 0.3179719 -0.30530286 0.34112155 0.20735879 1.8271024 0.9310135 1.2280027 0.07863605 -0.19298095 -1.32872 -0.46208066 -0.1328616 -0.5190365 -0.5066552 -0.46215054 0.38677847 0.05828029 0.024967298 0.3214867 0.17627068 1.1377472 0.41174564 1.1456671 -0.05258191 -0.4123145 -0.3951953 -0.44418803 0.2457127 -0.48042652 0.0069865435 0.6641125 -0.4526928
biznis_atribut_review_count_1.0 0.26999432 -2.357908 0.5589608 0.8016011 0.5699564 -0.20231648 0.5816853 2.2032678 -1.6388702 -1.6296 1.9313818 0.35858187 0.41129526 -0.24670228 -1.1024389 1.6019729 -0.97007596 -1.2015111 -1.0530137 2.629817 -0.017371317 -0.9859723 0.33849585 1.007377 -0.4169207 -0.032492235 0.74894595 -0.094177715 -1.4899975 -2.177371 0.99589366 -0.060762934
atribut_Good For Groups 0.31385207 0.35859022 1.0091385 -0.22322336 0.59796643 -0.48452795 -0.051411908 0.18954724 -0.57570374 -0.5203887 0.6745423 -0.24650227 -0.77157116 -0.23111746 -0.024260845 0.06384904 -0.0086209215 1.1569362 -0.022275582 0.8733193 0.59385854 0.8163757 0.043930054 -0.87503326 -0.012414301 0.016394403 -0.73385644 0.68060136 0.44546023 -0.08906333 0.09948381 0.5160253
atribut_Wi-Fi 0.27907336 0.15026172 1.19527 -0.16739383 0.30751416 -0.30886787 -0.19563903 0.099141866 -0.38961518 -0.5096002 0.39029753 -0.21912901 -0.5893114 -0.4026131 0.07802917 -0.0053051347 0.15379156 0.8227637 0.28927284 0.87338215 0.5734482 0.8925577 0.24623528 -0.5842906 0.04770372 -0.043317735 -0.62492895 0.47639886 0.43217584 -0.16711576 0.04190952 0.80385566
atribut_Alcohol 0.3302896 0.35353923 1.0122977 -0.29121077 0.48042738 -0.5100075 -0.034616712 0.2284212 -0.5141071 -0.53577757 0.6161022 -0.36158562 -0.68654025 -0.25869685 0.016099466 0.09029074 0.00811041 1.1735135 0.060432266 0.8729535 0.6467536 0.8314458 -0.02037709 -0.7905541 -0.05587325 0.048394047 -0.71659195 0.77562004 0.45128936 -0.103500485 0.17990652 0.55253994
atribut_Outdoor Seating 0.31755 0.45837322 1.0393884 -0.16075568 0.50394905 -0.3918182 -0.018149504 0.2481281 -0.5179695 -0.4841136 0.5524099 -0.42638832 -0.78183585 -0.32656366 -0.089719065 0.06043461 0.09958048 1.1780401 0.024564127 0.86422384 0.60645074 0.77220404 -0.0024746808 -0.7864494 -0.069223136 -0.02777135 -0.7153483 0.7268283 0.37984407 -0.18630303 0.15004356 0.5722317
atribut_trendy 0.2903749 0.30534524 0.885544 -0.2726246 0.5671435 -0.47414744 -0.026421592 0.22664484 -0.48650214 -0.5565844 0.6839165 -0.34476495 -0.7966705 -0.2963214 -0.10267001 0.0165752 0.08363693 1.0919555 -0.018196514 0.9276179 0.67581415 0.7888018 0.006852394 -0.72718585 -0.13401593 -0.01010782 -0.72217447 0.68498385 0.49638978 -0.040000234 0.15841521 0.48431632
biznis_YNQgak-ZLtYJQxlDwN-qIg 0.9147646 -0.14815049 0.41258568 0.47983876 0.10966562 -0.5166651 0.011271684 -0.49878618 -0.9326346 -0.9585137 -0.0417246 -0.13487762 -0.106662735 -0.32575443 0.13842593 0.97951525 0.61881125 -0.14039944 0.22742893 0.85710245 1.1091688 0.5754123 1.5062202 -0.26545867 0.013650195 0.090928905 0.28163797 0.5289828 -0.2436254 0.36478746 -0.7417505 0.47842187
biznis_SsTxjxo8qvqBMvan1rzNzg 0.6556294 -0.124114886 0.5074272 -0.5940098 0.55601925 -0.12705305 -0.42061278 -0.3584769 0.07261163 -0.45396063 -0.4344655 -0.4368829 -0.33497536 -0.8222313 -1.1689376 0.7932874 -0.83776516 0.20220082 -0.15366888 -0.20486392 1.0520432 1.2282388 1.3321491 -0.7608062 0.1022533 0.0008530512 -1.0005519 -0.9045359 0.9759092 -0.9764794 0.6453323 -0.6860704
atribut_hipster 0.30846024 0.29912052 1.017839 -0.29953614 0.55454075 -0.47706535 -0.02708873 0.11969702 -0.5819279 -0.55360496 0.6910606 -0.29270324 -0.6771759 -0.27268934 0.033648584 -0.03232893 -0.0059392233 1.1419502 -0.034425925 0.9163839 0.69724804 0.818307 0.027909178 -0.86305594 -0.095408015 0.007872327 -0.716827 0.7280153 0.51888466 -0.06865543 0.127754 0.5769629
atribut_intimate 0.2389812 0.38587755 0.94133276 -0.3350913 0.5193314 -0.5018241 0.024671443 0.23448087 -0.6133194 -0.47395068 0.7208508 -0.3065725 -0.6720235 -0.13765313 -0.039197538 -0.008264534 0.04164017 1.2250695 0.081885114 0.9723153 0.7360218 0.7320736 0.026225377 -0.7884806 -0.13501006 0.070496045 -0.6840981 0.67933476 0.46751654 0.0048039528 0.08927255 0.56791043
atribut_Noise Level 0.25259772 0.34813496 0.8833175 -0.28802007 0.62865096 -0.56024504 0.018887112 0.27466083 -0.5266458 -0.49339768 0.69796854 -0.3931807 -0.78802073 -0.15729263 -0.1116663 -0.07596091 0.16505282 1.071738 0.12047764 0.92355686 0.6696946 0.83170503 0.03751653 -0.6746412 -0.1801642 -0.068651184 -0.7329606 0.66114765 0.47173962 0.006977495 0.24663977 0.3965173
atribut_Waiter Service 0.37700552 0.33480492 1.0099655 -0.23833132 0.56932557 -0.4488357 -0.00048096868 0.16895711 -0.57842994 -0.53935874 0.6186107 -0.40190235 -0.7762448 -0.22300631 -0.0685104 0.121934265 0.13990965 1.1810967 0.095381096 0.8077383 0.6851492 0.7923255 -0.0004379338 -0.74805903 -0.07362213 -0.019942788 -0.75216824 0.7386706 0.42059177 -0.09183263 0.06381264 0.51790047
atribut_lunch 0.41544783 0.28754342 0.9966284 -0.24058224 0.5645315 -0.46370506 -0.042764205 0.14856204 -0.6203389 -0.47675315 0.66435635 -0.39956233 -0.7856322 -0.25628483 0.015073425 0.061308376 0.10509427 1.112864 0.09931823 0.889439 0.6284056 0.78513956 -0.03413258 -0.75898284 -0.0873009 0.05663239 -0.68903995 0.69117475 0.4612557 -0.13268524 0.11527069 0.5205877
atribut_Take-out 0.32748854 0.30955127 0.96090585 -0.3069489 0.53989536 -0.5035909 0.003380872 0.14680652 -0.6054891 -0.52034014 0.6030247 -0.31487066 -0.8051507 -0.2213862 -0.03147773 0.06805086 0.14452693 1.0799769 0.07007069 0.9056741 0.62120223 0.8056252 -0.044650976 -0.74684525 -0.093791544 0.12619168 -0.7182765 0.7368922 0.4506866 -0.09409101 0.09496522 0.47206885
biznis_4UVhuOLaMm2-34SrW8y-ag 0.22232278 -0.0068029957 0.6175615 0.79289913 0.32760015 -0.15684244 0.31393284 -0.40026522 -0.770058 -1.2334964 0.3814965 0.11353562 -0.89439493 -0.7470714 0.2928926 -0.07907665 -1.1613522 -0.10656564 1.038381 0.48441315 0.895063 0.58548146 1.3173314 -0.45999038 -0.020641554 0.03342154 0.26496285 0.1107564 -0.39536372 -0.378393 0.17003071 -0.43500134
atribut_dinner 0.29645076 0.31422588 1.0221406 -0.26933652 0.59776235 -0.4864411 -0.015341498 0.13373946 -0.6675846 -0.4968733 0.69310457 -0.35666683 -0.77148217 -0.20180424 -0.09417927 0.018797996 0.08499443 1.1971433 0.08104712 0.84623486 0.6315436 0.7668123 -0.042377546 -0.84231734 -0.1304704 0.045470923 -0.6407476 0.7472229 0.38956466 -0.1378077 0.10004809 0.538107
atribut_Attire 0.30918822 0.36538416 1.002177 -0.15267646 0.57772654 -0.4721869 -0.06348402 0.13556236 -0.538142 -0.535566 0.62024283 -0.3669799 -0.83451974 -0.24831596 -0.06774925 0.018867342 0.082354486 1.0907049 0.06680084 0.87071246 0.59181166 0.7521277 0.031133963 -0.7771912 -0.1562242 0.039628614 -0.6946015 0.6937508 0.40295267 -0.16651928 0.085536204 0.49718183
atribut_latenight 0.2773066 0.3610613 0.95566535 -0.27647364 0.5139748 -0.57112855 -0.013488464 0.20427766 -0.58881634 -0.5775467 0.60385114 -0.39107835 -0.81438625 -0.22156887 -0.027992928 0.11384358 0.08813128 1.1170412 0.122279696 0.85826665 0.7015735 0.7805059 -0.030629504 -0.7314034 -0.17029093 0.0527747 -0.6764115 0.74626803 0.4519874 -0.123146154 0.08571869 0.5371251
atribut_casual 0.24305348 0.38354266 0.88644886 -0.22424401 0.5566169 -0.5503228 -0.041147813 0.12737532 -0.5758402 -0.56978065 0.70599395 -0.36830232 -0.7698667 -0.20914218 -0.01955815 0.014593588 0.057222296 1.1856778 -0.006697588 0.94546485 0.6508731 0.80687284 0.021009933 -0.7410057 -0.11193778 -0.009527366 -0.71680003 0.7314604 0.51030266 -0.040253002 0.103758544 0.5259305
atribut_romantic 0.30820376 0.36602998 0.92127967 -0.1556568 0.5244502 -0.5072404 -0.048205987 0.25991634 -0.53364635 -0.58891934 0.69778764 -0.32994246 -0.8061131 -0.2201032 -0.15737632 -0.09899059 0.06506229 1.1586298 -0.029646814 0.9335761 0.6569656 0.8037967 0.049008735 -0.81199795 -0.10563742 -0.036303435 -0.75583524 0.73464 0.5028209 -0.06315585 0.16392702 0.4515847
atribut_brunch 0.37875548 0.32108968 0.9688855 -0.2245795 0.5240215 -0.48639694 0.008190439 0.12085277 -0.6347739 -0.51717556 0.61785257 -0.32955405 -0.7566526 -0.22732402 0.03572209 0.07965268 0.1447378 1.0969331 0.115320735 0.9287827 0.6365938 0.8239221 -0.031412188 -0.75907487 -0.14266331 0.08474827 -0.6438111 0.7096618 0.4235317 -0.06923384 0.052425716 0.57634246
atribut_dessert 0.33373702 0.29848957 1.0445826 -0.27303278 0.5148056 -0.57000536 -0.011573959 0.11995712 -0.5967401 -0.5088861 0.66670096 -0.35337195 -0.7761891 -0.25621217 0.024941085 0.10294359 0.20510529 1.1233869 0.13690622 0.8788649 0.57549894 0.7315104 -0.023948442 -0.76937115 -0.13297608 0.08719373 -0.62748796 0.78457826 0.39669603 -0.18735878 0.08426452 0.6013325
atribut_divey 0.25713336 0.3381652 0.89561874 -0.26560214 0.5750485 -0.5153426 -0.04726321 0.20018716 -0.570093 -0.59207684 0.6945045 -0.36650756 -0.7956178 -0.15596016 -0.013901375 0.08061182 -0.030822132 1.1374005 -0.0053246995 0.9207461 0.5796565 0.8272322 -0.036111463 -0.75150484 -0.10796191 -0.023696834 -0.6601146 0.7183991 0.57930195 -0.071234226 0.12562169 0.5313234
uporabnik_9FDMUyJStI86B07bKQleow -1.2724204 -0.92666173 -0.11811925 0.81445086 -0.41743472 0.30695584 0.8968632 0.88997275 0.5075238 -0.05047289 0.27942237 -1.1621497 0.4104306 0.3125037 -0.32738587 1.8522137 -1.1570829 0.34419248 0.063047014 0.23066401 -0.6759086 -0.017980283 0.35391378 -0.945232 -0.30241618 0.0075761904 -0.87901354 0.08354742 0.82077074 -0.57334 -0.2640822 0.48942745
atribut_upscale 0.29778257 0.40536416 0.8967828 -0.2124067 0.50451 -0.49353 -0.05823343 0.17854081 -0.53876454 -0.5628797 0.7219012 -0.3448389 -0.74429643 -0.2116393 0.009301539 0.061778996 -0.02245567 1.1402851 -0.043497853 0.90876126 0.5674318 0.799516 0.061131075 -0.861705 -0.1600078 0.026744511 -0.70149696 0.6533711 0.43770167 -0.08726357 0.1699365 0.5623405
atribut_touristy 0.28932443 0.40489155 0.8066927 -0.22235537 0.54178214 -0.45782632 -0.025807073 0.21975863 -0.5225319 -0.55827814 0.7022581 -0.38154563 -0.7682393 -0.23659468 -0.059580866 0.014453479 0.13776349 1.2147615 -0.03356047 0.9701341 0.6746964 0.798729 0.01466816 -0.80476934 -0.250619 0.03699081 -0.6974133 0.6958309 0.4456027 -0.100066185 0.13203534 0.58831364
atribut_Takes Reservations 0.297258 0.34123546 0.91731924 -0.29747555 0.56231636 -0.53368473 -0.008659661 0.10420382 -0.659155 -0.50247324 0.65699875 -0.3677299 -0.73075604 -0.19127834 -0.014350473 0.035833035 0.11477933 1.1392843 0.110874884 0.8715913 0.6147658 0.7685212 -0.054346677 -0.7296298 -0.16418844 0.08105233 -0.7341488 0.662442 0.41036904 -0.096928746 0.015224716 0.5599877
uporabnik_KJDymAcoPiW_vuqthGxfpQ -0.023069259 -0.19980279 -0.11764258 0.5377416 -0.22743605 0.28759694 1.4330821 0.05725894 0.6160561 -0.09470275 0.049404934 -1.0018598 1.0783391 -0.74481267 0.3441964 0.7456945 -1.187285 0.13637309 -0.058595825 0.17179915 0.44476444 0.7583814 0.06383044 0.52734023 -1.3258815 -0.33586133 0.2782426 0.663288 -0.95695 -1.6892165 -0.6303347 -0.03160676
atribut_Caters 0.29791012 0.36862236 0.8557872 -0.22683713 0.60007435 -0.48938224 0.0021274406 0.0957009 -0.6770255 -0.5123838 0.644636 -0.34050906 -0.779431 -0.25860056 -0.03310277 0.058526557 0.035570044 1.1372658 0.09311973 0.9282266 0.58817023 0.8357087 -0.033470646 -0.7460968 -0.12369614 -0.0006830871 -0.79509234 0.72386533 0.42693713 -0.06815083 0.11547824 0.5768118
atribut_classy 0.33760288 0.3116691 0.9219189 -0.15759365 0.54716444 -0.49397552 4.401856e-05 0.22300388 -0.52679324 -0.5928983 0.6950679 -0.30008912 -0.8167033 -0.23418519 0.0039070914 -0.029525155 0.038229354 1.0861987 0.021453409 0.96823215 0.5880454 0.7993919 0.0054012313 -0.8171511 -0.1443553 -0.058394216 -0.735669 0.706195 0.5389149 -0.02730406 0.10360822 0.5257781
atribut_breakfast 0.35565296 0.30002967 0.92167103 -0.21851821 0.5475177 -0.488815 -0.031171873 0.182234 -0.6236782 -0.5285095 0.6029431 -0.32776007 -0.82426083 -0.1639014 0.0004396107 0.06244928 0.06988835 1.1083568 0.15748554 0.8243513 0.6464036 0.832591 -0.029994695 -0.7233616 -0.18179114 0.044928946 -0.7311965 0.6159596 0.4392823 -0.1427047 0.11957009 0.55528754
biznis_MuIXnv7Oq7X3-4aEsp9dDA 0.18113846 -0.8072142 0.30766624 -0.4197789 1.0543454 0.47836572 -0.18547197 -0.21964255 0.8851197 -0.08582762 0.9598045 -1.082629 0.4746593 -0.9052289 -0.4145793 -0.29108685 0.7705645 0.40621382 0.07231584 1.4137894 1.0125064 0.2325857 0.60919666 -0.85374147 -0.5434501 0.8122932 -0.6895189 -0.2794306 0.09675126 -0.13136825 0.65435946 -0.8211972
atribut_Has TV 0.2758407 0.34165463 0.925204 -0.23341888 0.5143327 -0.4177077 -0.00029706708 0.18675826 -0.55561686 -0.5070589 0.6487284 -0.36720353 -0.77673763 -0.23083024 -0.059891112 0.053429306 0.063980125 1.1105268 0.033318195 0.93163157 0.64651376 0.8316172 0.0069306907 -0.78339845 -0.11646641 -0.01434579 -0.7251993 0.6225916 0.47120118 -0.047496937 0.17511694 0.5053949
atribut_Delivery 0.35755488 0.3001693 0.9356397 -0.17335908 0.6141719 -0.4209233 0.005430893 0.13837431 -0.6840811 -0.49319044 0.62382704 -0.37107313 -0.7967467 -0.21975131 0.052088328 0.0019364035 0.09269554 1.1512947 0.11030469 0.9073785 0.5642121 0.78148973 -0.11161798 -0.77281266 -0.17842673 0.00032679367 -0.78639597 0.7383636 0.48286167 -0.10549128 0.1218183 0.5611404
biznis_5GKbGn9-fAgQ0njSh3OJ8A 0.06508588 -0.28778312 0.73227954 -0.23464534 0.9416079 -0.42838958 -0.35356745 0.47820088 1.0354782 -0.7631281 0.84515876 -1.1749814 0.014513718 -0.36922812 0.4409629 -0.5477089 -0.22872703 0.26049542 0.28622082 0.039758246 1.4791046 0.11374258 1.6952331 -0.7028704 -0.68076175 1.137923 -0.20182957 0.27048728 -0.03695723 -0.2924697 1.2045413 -0.060354304
biznis_M2SjLXsuAy5RNKwxaA5E1g 0.36534095 -0.6383399 0.6612393 -0.6528031 0.5486288 -0.5293507 -0.39935926 0.38734314 -0.39313218 -0.38533118 -0.4775156 -1.1590906 -0.2804558 -0.5236673 -0.9692711 0.47306132 0.4790824 -0.17224236 0.017338699 -0.09258917 1.2507268 0.6397636 1.1262549 -0.34265104 -0.31461933 -0.1826698 -0.5153589 0.13887355 0.8811367 -0.8172876 1.211037 -0.43228874
atribut_vrednost_divey_false 0.29752734 0.3495217 0.9849482 -0.25236225 0.47526294 -0.51890886 -0.05163508 0.12779409 -0.61324614 -0.54031944 0.67634153 -0.37922308 -0.7443734 -0.26039478 -0.06124049 0.0612485 0.04888182 1.1753227 0.039479505 0.9173065 0.67098475 0.80545914 0.0367068 -0.8186435 -0.16997506 -0.020670297 -0.71537656 0.70120686 0.47486514 -0.07087058 0.16415404 0.5745275
biznis_h6jfMpTZpNduLG0wE2tbaw 0.89680433 0.4318149 0.43212587 0.28446582 1.1350194 0.26996255 0.07807855 -0.05327715 -1.1025652 0.32646796 -0.59784573 0.049652204 -0.31076574 -0.87233347 -0.26518658 1.0971992 -1.1335589 0.37408453 0.49654606 0.27102366 0.7749789 0.987592 0.49193296 0.023694523 1.1749216 0.5486589 -1.1894803 -0.16445373 0.57887596 -0.13907506 0.02543919 -0.7369569
atribut_vrednost_touristy_false 0.31839815 0.3512945 0.932684 -0.24308527 0.58065754 -0.54507375 -0.02277732 0.18663818 -0.61273974 -0.5477084 0.693089 -0.3600354 -0.8483555 -0.16182736 -0.054498747 0.07237378 -0.0004909022 1.2322967 0.0492813 0.99210465 0.5777954 0.81119806 0.01851273 -0.75080836 -0.09235718 -0.021155205 -0.69266045 0.72840315 0.5359471 -0.0638623 0.17168272 0.48960125
biznis_aGbjLWzcrnEx2ZmMCFm3EA 0.102820665 -1.2746701 0.5073759 -0.61870927 0.834506 -0.8675911 -0.59290487 0.09978283 -0.69366294 -0.86424786 1.5256428 -1.3095465 0.648147 0.14252453 -0.044726726 -0.24161054 0.30436805 -0.025295913 0.40716943 0.17870168 1.5594765 -0.29319987 0.84240276 -0.050442062 0.05327339 -0.9523669 -0.19269386 0.12502845 0.3590334 -0.26324186 -0.07118702 -0.24194084
atribut_vrednost_intimate_false 0.36786467 0.322483 0.92544883 -0.226603 0.4796693 -0.49923646 -0.06621377 0.18140116 -0.5584599 -0.5658613 0.6135644 -0.3938911 -0.7906389 -0.2989342 -0.054618426 0.023253463 0.02653399 1.2003826 -0.0116125615 0.9459606 0.6290911 0.87550724 -0.015114954 -0.77239656 -0.091960646 -0.04320342 -0.6953543 0.6965929 0.4849073 -0.10157228 0.17522556 0.51646864
atribut_vrednost_Good for Kids_true 0.6831815 0.35849974 1.330296 0.18987916 -0.059337575 -0.21180896 -0.3665845 0.7978821 -1.029567 0.33948418 0.34404492 0.42697132 -0.08745214 -0.17665783 -0.20183581 -0.23743227 0.32825372 0.60080194 1.1867673 0.68187004 0.8452506 0.6168882 0.84978527 -0.50978947 -0.3083489 -0.4683528 -0.81583923 0.5430893 -0.22456521 -0.65246564 -0.22147247 0.40874356
atribut_vrednost_romantic_false 0.27613246 0.35992625 0.8579751 -0.29791704 0.46597892 -0.57467633 -0.038897183 0.15173839 -0.5729646 -0.5611686 0.68315816 -0.27508864 -0.7214395 -0.26971143 0.024543826 0.10765004 -0.06378552 1.0920223 -0.01664416 0.9235679 0.6830372 0.85981864 0.010995641 -0.7759388 -0.13421431 -0.01720991 -0.73069805 0.647805 0.52204126 -0.04977532 0.12661143 0.5739497
atribut_vrednost_dessert_false 0.3603353 0.2989837 0.93907535 -0.22933145 0.6546245 -0.45914575 -0.008796636 0.23614736 -0.6614808 -0.4864045 0.6406235 -0.36559469 -0.7901647 -0.18392117 -0.07059658 0.013856739 0.032041878 1.0617343 0.12053418 0.91585976 0.68856853 0.7576718 -0.04032254 -0.812622 -0.14003012 0.032146357 -0.6806881 0.6835625 0.5115378 -0.053113956 0.110778615 0.45101947
biznis_2ceeU8e3nZjaPfGmLwh4kg 0.2674014 -0.45583344 0.77219427 -0.44012505 0.023798732 0.065457016 -0.37704155 0.048020504 -0.68679136 -0.53721267 -0.019014122 -0.9605602 -0.10702823 -1.263993 -0.42063412 0.053320747 -0.71283257 0.3599985 -0.21166253 0.63650626 1.1123754 0.7471455 0.6920672 -0.0328567 0.24838832 -0.016442707 -0.5145394 -0.25677484 1.0836806 -0.8764207 1.0051557 -0.9097135
biznis_JokKtdXU7zXHcr20Lrk29A 0.45457056 0.13800947 0.62317824 -0.2165207 0.4937015 0.11475094 -0.4569173 -0.19501047 0.049129277 0.47832093 0.28610474 -1.2277116 -0.088030055 -0.9537876 -0.11935601 0.15162162 -0.5087872 0.54972637 -0.17548524 0.8568018 1.3281295 0.8969288 0.652536 0.24529332 -0.029454613 0.5304122 -0.3996579 0.08322003 0.40035695 0.14028494 0.726348 -1.0167528
atribut_vrednost_Delivery_false 0.39000043 0.32357657 0.9001429 -0.2871387 0.5951844 -0.51170284 -0.019166678 0.15214916 -0.5960377 -0.4981824 0.6245335 -0.4168304 -0.8492521 -0.15261404 -0.04007921 0.09374871 0.14919665 1.1122584 0.031664323 0.89290416 0.69181746 0.8104926 0.008851637 -0.6541247 -0.15293765 0.0665031 -0.6877417 0.6145336 0.4397136 -0.011593187 0.063833386 0.4404813
biznis_naLrErBuJr9IWd6_rv6-XQ -0.30734038 0.44690725 0.10622138 0.15419844 -0.089257225 -0.39919537 -0.5253546 -0.2095933 0.24303271 -0.7113596 0.13882045 -1.058503 0.1876327 -0.3760548 -0.59707433 0.24637304 1.078372 0.52466077 0.44660452 0.8760661 0.6030729 0.9202081 1.3083818 -1.003157 -0.6694519 1.2545578 -0.6980884 -0.6054029 -0.16533637 -0.45449486 0.49754208 0.08177283
biznis_ngNvH4sxnH9aMukTZ67R_Q 0.829681 0.23010963 0.79221183 0.05162856 0.016641025 -0.6137919 -0.022523401 -0.061430953 -1.0452962 -0.44922128 -0.86766636 -0.24931426 -0.40444753 -1.0455021 -0.061318833 1.189706 0.10950054 -0.29487696 0.013381141 0.829963 1.320443 0.95328563 0.6927929 0.1750514 0.8140445 -0.13260396 -0.8795928 0.4268054 0.18767145 0.054577325 -0.37243617 -0.3736578
biznis_Fh6OndE60vzvyhCX1Wg7Aw 0.6705817 -0.6549235 0.4677556 -0.025749046 1.1196554 0.29758704 -0.1999206 -0.6243248 0.1963424 -0.41745225 1.3437691 -1.157836 0.20389363 0.09592954 0.32283577 0.96860397 -0.22363107 1.0082769 -0.30596808 0.063036054 0.9211844 -0.21538728 1.3614317 -0.23680137 -0.09992894 -0.22169147 -1.0364575 -0.05217642 0.20039234 0.31748497 0.08642846 -0.41116536
biznis_atribut_review_count_2.0 -0.67640364 -0.31056497 1.0025754 0.5361281 0.756285 -0.3443246 0.04736776 -1.0250647 -1.6383573 0.41907832 -0.6691731 -0.80543894 1.2429671 1.1216383 0.67281556 -0.10002241 0.63407904 0.54163706 -1.6199847 0.3542126 0.76473075 -0.06427187 1.6941322 0.60313004 1.1250023 -0.3448949 -1.905751 -0.5351232 -2.4505959 -0.94199884 0.54787046 0.8920058
atribut_vrednost_Good For Groups_true 0.3166206 0.27774405 0.92972046 -0.2227119 0.5501743 -0.46093258 0.0068789693 0.19676983 -0.51010084 -0.62225467 0.62738025 -0.4074901 -0.7865306 -0.32452098 -0.059768166 -0.025392814 0.19055937 1.1976491 0.03339007 0.9106516 0.60967875 0.8128889 -0.03561074 -0.7048864 -0.078438275 -0.08542358 -0.7426356 0.62859595 0.45063934 -0.112440385 0.1789036 0.52142197
atribut_vrednost_hipster_false 0.26893532 0.37671104 0.90088904 -0.18709293 0.57301027 -0.46907043 -0.07788896 0.19088309 -0.5548879 -0.57231486 0.6774911 -0.5208257 -0.83492386 -0.17361249 -0.068739034 0.0924739 0.027425181 1.0931691 0.081838705 0.91285515 0.61598986 0.79708385 -0.064632446 -0.78004414 -0.116046384 0.015509666 -0.73399776 0.7431818 0.463208 -0.065073304 0.092864126 0.52561176
atribut_vrednost_upscale_false 0.42525965 0.29254317 0.8896927 -0.22094113 0.48706132 -0.47065526 -0.024240253 0.22963002 -0.51029783 -0.45836502 0.6905227 -0.31960577 -0.75010866 -0.23694135 -0.005949044 -0.052949294 0.03741747 1.2039118 0.11968509 0.9863817 0.75650984 0.85597754 -0.052808773 -0.7901002 -0.23078752 -0.112560235 -0.79925835 0.7930089 0.4951593 -0.070664234 0.17871593 0.596983
biznis_tqu42L0qXzkvYKSruOz0IA -0.33632335 0.35111117 0.2841392 -0.6338292 -0.28659365 0.38114038 0.2124775 0.1311412 -0.37118903 -1.3592825 -0.2546979 -0.71673673 0.15070961 -0.6883144 -0.49277788 0.94178504 -0.029067967 0.11136172 -0.1070179 0.4617004 0.68684393 0.82142836 0.6018386 -0.6044383 0.4813076 0.33732864 -0.9072219 -0.13651076 0.7785533 -1.3878596 0.9110919 0.55525476
biznis_WhBxWYRj6rycigYqdXY9cA 0.8564689 0.19085896 0.78395647 0.013606606 0.29585016 -0.33339646 -0.59896535 -0.31954196 -0.6435037 0.3890044 -0.26288196 -1.4608207 -0.40487117 -1.3580705 0.1031793 0.22189727 -0.33456486 0.64858425 0.14665276 0.49253127 0.7075875 0.4050321 0.8910531 0.030145355 0.06161049 0.4096521 -0.8297816 0.15118738 0.66031706 -0.916694 0.42121357 -0.81048435
biznis_K8pM6qQdYu5h6buRE1-_sw 0.72778416 -0.40147832 0.93235785 0.4024324 1.1864717 -0.33046484 -0.33573443 -0.3802309 -0.94678193 -0.2401839 0.15213168 0.016286835 -0.5095229 -0.9547853 -0.10081722 0.48818606 -1.1844639 0.4158393 0.28830856 0.30156583 0.9569466 0.008547916 1.1812415 -0.3264411 0.80438894 -0.2591632 0.4155633 0.8743517 0.17657755 -0.77386814 -0.367511 -0.66997755
biznis_nZgYNbl1XlZyyKlISMoG6w 0.26815253 -0.51335645 0.1679747 -0.7669398 1.1824881 -0.20092088 -0.4417458 -0.3888425 0.94439775 -0.85583997 0.35987493 -0.93707824 -0.2733058 -0.9023955 -0.12361787 0.52502304 0.6574089 0.29600114 0.106290214 0.010738812 0.6209096 1.0454906 1.0849324 -0.33269277 -0.43810257 1.228773 -0.5205186 -0.47715202 -0.12849589 -1.2281688 1.0781506 -0.12812492
biznis_mDdqifuTrfXAOfxiLMGu5Q -0.63611424 0.112223506 -0.011726525 0.1277836 1.2631347 -0.5857736 -0.3912793 0.19192263 -0.36379638 -2.203782 0.97971165 0.12583756 0.010929638 0.22953972 -0.7460411 0.52476305 -0.13565648 -0.13869843 0.49768892 0.128497 0.6337168 0.8159505 1.3492198 -0.69290894 0.5650494 0.94740516 0.07155747 -0.46377555 -0.38479134 -0.9519034 0.15238519 0.19883457
biznis_jOuERtVf7QePnK9ZcdH5XA 0.9426176 0.030596105 0.4406714 0.4313538 0.73803276 -0.4584635 -0.6112222 -0.30326185 -0.3958257 -0.29309914 -0.6618271 -0.43271297 -0.52208364 -0.19124453 -0.3336863 0.87291044 -0.32953846 0.25949094 0.80571914 -0.36663145 1.3696213 1.3637075 1.8214554 -0.54603267 -0.14471844 -0.42359948 -0.122563444 -0.24648495 -0.079851374 -0.0534392 -0.33781245 0.16889529
biznis_xyTJYlbE_MLouK6rCou6zg 0.6143426 -0.20481671 0.15155672 0.7607788 0.14245939 -0.27121335 -1.3100433 -0.4038301 -0.92579246 0.074034944 0.3637675 -1.1307355 0.03192389 -0.35421735 -0.8220372 0.17676267 -0.78876686 0.8974974 0.7155466 0.6418693 1.0461007 0.58422524 1.0341363 -0.2983754 0.38725847 -0.49637184 -0.17913786 -0.30069736 0.74167204 -0.28590578 -0.71857595 -0.4609039
atribut_vrednost_brunch_false 0.24557808 0.49085978 0.9498314 -0.21433096 0.4944446 -0.64262617 0.017216733 0.084324606 -0.65684175 -0.51097965 0.64911014 -0.4797878 -0.7497421 -0.13782746 -0.08641665 0.06014419 0.079921074 1.230919 0.13842833 0.90056336 0.7223872 0.8196329 -0.10060103 -0.6960761 -0.10424649 -0.054952245 -0.7539207 0.6043646 0.40106288 -0.079926506 0.13163199 0.5032859
atribut_vrednost_latenight_false 0.44375634 0.2582949 0.9193038 -0.17170683 0.71192104 -0.47982973 -0.072330445 0.071210966 -0.66128314 -0.47199827 0.64581406 -0.2751675 -0.72202015 -0.21444917 -0.03625964 0.06463827 0.069730744 1.1471119 0.055123262 0.8417231 0.5446306 0.81997347 0.030426785 -0.7808574 -0.116482444 0.09976201 -0.75379807 0.64856535 0.50075054 -0.0003102831 0.03908818 0.51834786
biznis_Gn7bMxhZgY0bivsthvJWJQ 0.562614 -0.14906462 -0.14470789 -0.042765927 1.2104198 0.71972096 0.12833759 0.6342121 -1.3473891 -0.63391364 -0.27933466 -0.32489955 -0.41784087 0.062626764 -0.9933631 2.0487592 0.5075709 -0.33816105 0.8244332 0.8313068 1.4310055 0.6354167 0.76221794 -0.2524144 0.59345937 -0.7187676 -0.11554896 0.06642367 0.4701895 -0.45459646 -0.48469463 0.57712966
biznis_Pz7SWZQhxL6ZbhL9jE2NTA -0.027513346 0.5446118 0.011247144 0.17202766 0.22598249 -0.08638145 -0.21621716 0.70468223 -0.06465802 -1.2634093 0.34455907 -1.2574193 -0.08583701 -0.18992476 -0.5431246 -0.14720294 -0.20466958 0.6258518 0.6208602 0.6570635 0.50701606 0.20243643 1.6435093 -1.021001 -0.5855447 1.372321 -0.66518426 -0.9708546 0.5009116 -0.74779946 0.65057766 -0.7100525
biznis_iXA8Y2bzvZo8MjALfZxrIg 0.3353479 -0.12772794 -0.10188632 0.046074186 0.040422283 -0.07195079 -1.0373437 0.46610594 -0.42978117 -0.07904686 0.25965208 -2.358044 0.29356465 -0.506784 -0.31726253 0.085311085 0.18706578 0.8743028 0.41626015 0.4450074 1.0780778 0.43298617 0.8530969 -0.13395779 -0.45574158 0.083803035 -1.0497408 -0.68860555 0.9539961 -0.4882426 0.40787315 -0.5903174
biznis_VVeogjZya58oiTxK7qUjAQ 0.35168397 0.18116713 0.91501486 0.5086089 0.5827936 -0.5965914 -0.0705847 0.39583734 -0.70264995 0.008765111 -0.097984165 -0.62076247 -0.029079068 -0.34264514 0.27663 0.68793035 -0.23922592 -0.08704379 -0.03133401 0.6488033 1.9928926 0.0867243 0.91034204 0.029158782 0.5559425 -0.23187767 -0.41320857 1.039543 0.18516274 0.91747755 -0.33534497 -0.50391245
biznis_-sC66z4SO3tR7nFCjfQwuQ 0.21249023 -0.6165037 0.59242725 -0.0043878276 1.2439927 0.16401826 0.2675989 0.3471834 0.67603517 -0.2219675 -0.13955408 -0.5326279 0.69592404 -0.81684995 1.0443832 -0.28596413 0.3262753 0.1410683 0.3369209 0.44173762 1.5027288 0.6035627 1.3603871 -0.315224 -0.95320207 0.6899963 -1.0673993 0.14002664 0.1385013 0.8776064 1.0483615 -0.05710225
biznis_sIyHTizqAiGu12XMLX3N3g -0.13854055 -0.11869162 0.38390607 0.08236719 0.98435575 0.1516507 0.7823938 0.48352355 -0.43627667 -1.8364093 0.21026644 -0.014607191 0.48493809 0.06339454 0.41709825 0.5640277 1.0151801 -0.5552692 0.5981645 0.4610515 1.2708204 0.41292214 1.7070127 -0.6882458 -0.83153594 0.14186302 -0.29301834 0.31202027 -0.9158114 0.44665235 0.14159466 0.7284911
biznis_ASOiJ8MmbBTgK2D1_MQrqg 0.24952404 -0.01844847 0.1593803 0.94197917 0.6230018 0.26766497 -0.6215872 0.27951777 -0.5761244 -1.5829413 0.7457531 -0.7010962 -1.0366366 -0.48782042 -0.39189702 -0.013594156 -0.043322682 -0.027474802 0.24465826 1.2611717 0.63243705 1.1786191 1.1212838 0.033995114 0.3168748 0.4888958 0.47363523 -0.21822655 -0.33042118 -0.09286501 0.17367332 -0.86567354
atribut_vrednost_breakfast_false 0.29433206 0.3720022 1.0605551 -0.17220713 0.5473766 -0.64605385 -0.057830177 0.12440075 -0.48816997 -0.6095898 0.6175907 -0.4821608 -0.7065635 -0.19672376 0.01929025 0.08852745 0.053504094 1.144958 0.044604182 1.0555553 0.6419971 0.8089137 -0.16698752 -0.7084226 0.011917163 0.132886 -0.63765854 0.7768713 0.42301846 -0.0038152237 0.06878915 0.3818687
biznis_PmPOuRvuN3CoNOi1nBj_TQ 0.46247974 0.40141642 0.34634802 0.45179394 0.7052021 -0.15950948 -0.15122151 0.12776387 -0.82503843 0.33885506 -0.9508047 -0.93516123 0.016930552 -0.70364124 0.22700228 0.8366833 0.20203605 0.20431975 1.2862123 0.8411078 1.2151432 1.2126021 0.370671 0.64453477 0.66190493 -0.042555247 -1.2618988 0.059693128 0.13112977 0.54755 -0.17549588 -0.18438268
biznis_WS1z1OAR0tRl4FsjdTGUFQ 0.43374112 -0.5517634 0.14244659 -0.20059569 0.75441545 0.09165065 -0.74449 0.4417725 0.04443899 -0.38553417 0.52707654 -1.4792185 0.18220055 -1.243829 -0.14704747 -0.06322517 -0.5758372 0.6537734 -0.12039463 0.27745703 0.51829314 0.2684853 0.42927724 -0.40968564 0.5123405 0.84378606 -0.6287557 -0.03825128 1.0319155 -1.2173771 1.057988 -0.6092019
biznis__FXql6eVhbM923RdCi94SA -0.054435845 -1.0544286 0.221577 0.15889885 1.256384 -0.08373274 -0.27327207 -0.0740694 -0.22692873 -0.5603623 1.4398817 -1.5759702 0.9477252 -0.45941645 -0.19459148 -0.7934529 -0.12085961 0.8918555 0.52544016 1.3080688 1.6698723 -0.8921045 0.6759482 0.20703049 0.006833983 -0.00989268 -0.6282362 -0.13011566 0.22973862 0.5814843 -0.12612288 -0.9706253
biznis_5FLRsYrT6w2VSDvQDhphXg 0.38287935 0.44081274 0.44590297 0.30850697 -0.13188381 -0.14346983 -0.25148022 0.37145498 0.27758968 -0.80678576 -0.07698404 -0.94264746 -0.48375013 -1.100569 -0.27375987 0.26246196 1.4161094 0.031892072 -0.21582094 0.9477243 1.1496205 1.2445531 1.134351 -0.13084848 -0.18295315 1.0912563 -0.99763066 -0.220308 -0.20140591 0.029710125 0.8308096 -0.29042393
atribut_vrednost_classy_false 0.2390227 0.37902576 0.86857194 -0.38798395 0.5271882 -0.51882654 -0.020605508 0.18972345 -0.5914775 -0.49358237 0.6910119 -0.27545366 -0.7759209 -0.18276474 0.07082975 0.11865027 -0.09103375 1.2325993 -0.0003125327 0.9519593 0.71383977 0.73780024 0.031012826 -0.71609914 -0.2687357 -0.06231415 -0.6866373 0.7473649 0.51308984 -0.2856797 0.14330311 0.48196203
biznis_atribut_review_count_3.0 1.2090735 0.24496485 1.191701 0.6698534 0.68203986 0.23865314 -0.3729148 0.71634334 0.71587163 1.1902406 -0.47359255 -0.5898106 0.48285198 -1.62654 -0.5237701 0.77438045 -0.2971444 1.0309018 1.062524 0.31675765 0.18643968 0.7046742 0.6659235 -0.65351087 1.403147 0.09717975 -1.4762869 0.8671 -0.060234427 -1.2552971 1.138275 1.3034455
atribut_vrednost_trendy_false 0.14799936 0.39043918 0.936344 -0.10819367 0.38074437 -0.6118896 -0.16994095 0.13297519 -0.7977892 -0.5471047 0.57868797 -0.3074657 -0.7336294 -0.12649426 -0.06916959 0.05424728 0.07987209 1.2125134 0.063126095 0.8989441 0.6009901 0.8734969 0.13299784 -0.84228456 -0.2606264 -0.025502127 -0.884696 0.7618341 0.43190148 -0.04230124 0.17741883 0.65736204
biznis_aRkYtXfmEKYG-eTDf_qUsw -0.13203862 -0.1695249 0.6136529 -1.0528744 0.9274384 0.5233501 0.22066239 0.039774876 -0.115520276 -0.8054259 1.3311964 -0.5964229 0.97550875 -0.4756672 0.055782717 0.13536935 -0.1332825 0.4207573 -0.2740761 -0.59397525 1.0304664 0.4287898 0.9276754 -0.7628875 -0.24748036 0.62081736 -0.7673305 -0.16251479 0.013509492 -1.0893557 1.361937 0.445418
biznis_NsnZ5GhagXBKrCOelxVQxw -0.15675126 0.32486764 0.23299174 0.14679278 0.063783415 -0.024208006 -0.44383886 0.1808082 0.7379812 -1.1065923 1.2456576 -0.9422745 -0.3469822 -1.0493869 0.34894833 0.17204969 0.20260277 0.41179132 -0.75697887 0.42701942 1.0204418 0.53271765 1.0617437 -0.4027726 0.16827488 1.1805106 -1.0310029 -0.43724927 -0.060905308 -0.5450423 0.6979809 -0.5247211
biznis_tn5SXZvWiT-uVsjXLGSrww 0.270239 1.1606003 0.44682965 0.447164 0.17178594 -0.06651544 -0.3328543 0.4009495 -0.36682186 -0.96425146 -0.031837527 0.1182464 -0.45772383 0.2615833 -0.22917417 1.7234116 -0.45541927 -0.25952297 0.22850305 0.607026 0.94288576 1.131438 1.7147908 -1.079701 0.5653517 0.51445067 -0.79631513 -0.15599973 0.120355986 -0.09923273 -0.43353775 0.27440062
biznis_QbmcCE_cLq4WO8ZMKImaLw 0.35144433 -0.41171226 0.08476017 0.023126207 1.1514584 -0.5168822 -0.76953644 -0.2614887 0.05233287 -1.4736544 0.5458946 0.16137618 -0.33269438 -0.529876 -0.1975071 0.55369514 -0.5429895 0.012087301 0.61070657 -0.710609 0.4245629 1.28526 1.6009389 -1.0733796 0.058232427 0.55200034 0.051363524 -0.41723257 -0.116289474 -1.439477 0.28604382 0.2535756
biznis_BqrTtox0JbG-P_DKBB5bBw -0.3393495 -0.3472485 0.24519083 -0.14702217 0.7540828 -0.535756 -1.4587859 0.24638984 -0.6585688 -0.4857382 0.94838786 -1.2605367 0.606063 0.25846016 0.50421345 0.043285556 -0.87146467 0.6789318 0.8903645 -0.22600573 0.58971745 0.40856135 0.8006826 -0.47041497 0.7228809 0.036551256 -0.27609798 0.013104726 0.4782499 -1.0712688 -0.14950433 0.16433567
biznis_JauLZ0TL3D3VIGtSnStzhA 0.27460796 0.22283463 -0.19544047 -0.3015721 0.38577002 -0.5300323 -0.8612697 0.4802494 -0.07761391 -0.381047 0.2790154 -1.5484667 -0.210525 -1.042847 -0.7495098 0.38989127 0.35145995 0.40902326 -0.13851567 0.24605538 0.7219462 0.79376245 0.41243738 0.038843956 0.5831113 0.6160526 -1.4565991 -0.62831146 0.53774947 -1.0657775 0.7609853 -0.8878146
atribut_vrednost_Waiter Service_true 0.36224264 0.17689806 0.89232516 -0.10431979 0.61870646 -0.5399037 -0.040478855 0.23894955 -0.6327823 -0.59451455 0.4573034 -0.4178703 -0.8285132 -0.44565058 0.016572554 -0.1042904 0.096971326 0.8859245 0.12237148 0.97136325 0.6944645 0.7785407 -0.05738722 -0.68279725 -0.14323156 0.21663679 -0.49431136 0.55580395 0.56948864 -0.075133204 -0.008609978 0.4519053
atribut_vrednost_Attire_casual 0.47451094 0.28101844 0.84496087 -0.26193085 0.5907276 -0.3705532 0.059797663 0.27037907 -0.523219 -0.32350975 0.6326202 -0.2801256 -0.6955798 -0.49781942 0.012448437 0.0828088 0.10856643 1.2363404 0.050931763 0.82877636 0.80625194 0.7425279 -0.13988699 -0.70763385 -0.30841562 -0.1855204 -0.7404136 0.8668695 0.42251757 -0.26369938 0.124006994 0.5190157
biznis_05tazaFQt1EnQ_Gk_1AFyg -0.9130635 0.23654492 -0.043154832 -0.58563733 -0.10782215 -0.4849637 -0.7432506 0.5394093 -0.40751696 -0.5113391 0.124890305 -1.8806946 0.73640317 -0.05811796 -0.404933 0.46069604 0.6701805 0.21851058 0.78218496 0.6714266 1.0474293 0.63808185 0.51128954 -0.25286582 -0.12798305 0.2059875 -1.6736948 -0.67831403 0.6461633 -0.6194344 0.64592737 -0.0013982434
biznis_4GQhbPvGU5r23YdVm8EmkQ -0.28496292 0.34019327 0.21813352 0.5142342 0.35159227 -0.114305004 -0.78722125 0.20900834 0.49836388 0.008444159 0.30337438 -0.70076865 0.32768586 -0.7444734 0.7188454 -0.08780499 0.10021363 0.3265836 0.87537605 0.39073288 0.7666513 1.1554605 0.7704289 -0.6037418 0.17899288 1.765935 -1.1090772 -0.15163237 0.23918584 -0.34234655 0.8702789 0.5981461
biznis_O-Xa9GCFWI65YiBD5Jw_hA 0.25651023 0.28867823 -0.021343812 0.33912325 0.7021926 0.52009386 -0.8729138 -0.19356775 0.10321178 -0.633593 0.72227836 -1.2398092 -0.40476146 -0.5317702 -0.5498597 1.0737253 -0.18065505 0.4934075 0.14051129 0.5346999 0.41069412 1.5066094 0.7901815 0.016227316 0.2727393 1.2613155 0.46649066 -0.029918568 0.16661598 -0.52460057 0.63686645 -0.047521856
biznis_J4qLz0nGzCTMf6-kf_SiQg 0.4274795 0.2400457 0.6196993 0.16673397 1.08781 0.060272373 0.30250442 0.17934588 -1.084469 -1.2944692 0.7083353 0.093352176 -0.8821662 -0.2073169 -0.5753671 1.605079 -0.015228062 -0.739451 0.66483426 0.80903435 1.6198264 0.82878023 1.3054167 -0.22941902 0.36045548 -1.2363676 0.430689 0.23605114 -0.5781637 -0.43357536 -0.41637185 0.0018724701
atribut_vrednost_Noise Level_average 0.30909657 0.2702278 0.84747577 -0.13652442 0.56034166 -0.4969357 -0.08742209 0.010705723 -0.58616036 -0.61221725 0.66383415 -0.32672212 -0.7572542 -0.29211617 0.0056079417 0.15553007 0.055916905 1.248938 -0.07448057 0.97731656 0.51210415 0.7852146 0.0063750604 -0.83947134 -0.062468804 0.00927568 -0.8797185 0.77957517 0.61328 -0.057112105 0.02220863 0.6525373
biznis_6imLt53br7SJ3av07jjH7w 0.083844006 -0.40811163 0.6433904 -0.8239952 0.8227183 -0.26847228 -0.13734375 0.24041712 0.6032675 -0.50126153 0.25205985 -0.8655908 0.17379084 -0.66760695 0.39697692 0.49784285 -0.41396043 0.33043438 0.041917652 1.3156645 1.5166863 -0.14659259 0.7319812 -0.020239513 0.39011917 1.1804581 -0.59367764 0.042597547 0.87443125 -0.30266094 0.33148968 -0.7410015
biznis_atribut_review_count_4.0 0.09592151 0.3194693 1.28335 -0.078622445 0.33591712 -0.1114929 -0.14251576 0.10912082 -0.4777474 -0.62388784 0.44484326 -0.49049127 -0.67763054 -0.21594313 0.035053734 0.0899084 0.09690406 0.7298397 -0.039598677 1.0286479 0.6659794 0.47334546 0.26201198 -0.6691826 -0.2454387 0.019417174 -0.36789283 0.6220542 0.38291103 -0.29416233 -0.23930718 0.5613914
biznis_H_SuH7uLiYahDMbNBB9kog -0.62860155 -0.8418367 0.42318094 -0.37151596 0.3511664 -0.32122993 -0.8670284 -0.51804984 -1.4774153 -0.38457036 1.3940982 -0.9592664 0.9329526 -0.15239106 0.08541907 0.59914064 -0.29179984 0.35805467 0.85436445 0.46086425 0.33489773 -0.010401087 0.29864115 -0.22877693 0.57087874 -0.03344824 -0.38660643 0.14986515 0.46464208 -0.9208805 -0.07556225 0.06897006
biznis_KjymOs12Mpy0Kd54b7T9MA 0.16403422 -0.07297242 -0.09712739 0.97873527 -0.0534174 0.45472917 -0.76155466 0.65223426 -0.9091269 -1.1763512 0.2829703 -0.72511446 -0.32345352 -0.2397779 -0.5798755 0.31611693 0.3945118 0.089216 0.50898564 1.0660067 0.8570658 1.3130395 0.5009295 -0.04222986 1.1623391 -0.25539064 -0.2811088 -0.2827062 0.32054803 0.02283641 -0.27060232 0.034919817
biznis_V1nEpIRmEa1768oj_tuxeQ 0.21618295 -0.4800908 0.93491846 0.6218618 0.76793414 0.1678731 -0.49819735 0.0051950244 -0.6174122 0.1356233 0.2667499 -0.8053917 -0.10559116 -0.6189994 0.15240394 -0.35383832 0.120649904 0.042139165 0.8334615 1.1136308 1.3119363 0.98163337 0.5117895 0.16530256 0.24069513 -0.3573376 0.33195367 1.1091435 -0.15523489 0.52778214 0.3676193 -0.18494943
biznis_8buIr1zBCO7OEcAQSZko7w -0.2043303 0.94197136 -0.23705581 0.6201422 0.34867325 1.0787342 0.15656996 0.83137095 -0.8862438 -0.27229398 0.74945813 -1.0094259 -0.12697525 -0.7675725 0.27481747 -0.15464672 -0.5796353 0.54877883 0.28749314 0.7562364 1.2185383 0.6866835 0.25323746 0.050821144 0.42611274 0.58615416 -0.61177135 -0.2942003 -0.122718744 0.15021569 0.24674605 -0.5468167
biznis_PXviRcHR1mqdH4vRc2LEAQ -0.15768872 -0.99351156 0.4776174 -0.3071411 0.46750283 -1.0880244 -1.1285708 -0.5258929 -0.052911278 0.014292266 0.85346746 -1.1132543 1.0264716 -0.04023874 0.44355732 0.07178471 -0.7353541 0.74892735 1.2108934 0.20925808 1.3150157 0.14065999 1.1528095 -0.15876764 0.06317635 0.07639485 -0.89424753 -0.18228205 0.7238729 0.16353224 -0.0044739535 -0.060657106
biznis_xY1sPHTA2RGVFlh5tZhs9g 0.16286282 -0.46675953 0.237051 -0.52522117 0.70745623 -0.6372727 -0.31346482 0.32432976 0.11899381 -0.37372917 -0.17511083 -1.9973978 0.28136313 -0.77858114 -0.28991234 0.20884977 1.0779036 0.21982689 0.30618986 0.6645424 1.2495848 0.38695925 0.48090675 0.4422259 -0.16602345 0.24761204 -1.1842102 0.043462634 0.42526376 -0.15264273 1.1281365 -0.4196994
biznis_AumuGuTg3HqvtwbLPi-ZCg -0.32102436 0.37458035 0.43487933 0.35583574 0.15303074 -0.2675871 -0.62396276 -0.062157538 0.043560013 0.3827168 -0.11893535 -0.9258636 0.45790446 -0.83121055 0.56354463 -0.15720719 -0.6607308 0.6152091 0.8231161 0.4228016 0.98326826 0.45844522 0.6300491 -0.72921276 0.40135506 0.34436625 -1.8255352 -0.27112666 0.573749 -0.2630772 0.008108701 -0.19732784
biznis_VbI_ryrGPdNRaDrYRJGMiA -0.39814296 -0.4856018 0.7168749 0.13293858 0.70608133 0.6807724 0.45152038 -0.038514722 -0.6597281 -0.47139966 1.0553292 -1.0342351 0.84091175 0.028682096 0.9730443 0.14752795 0.09152357 0.58804864 1.3827463 0.69163036 0.6754285 -0.27719837 1.0079132 -0.52698755 -0.22175176 -0.81142235 -1.0603844 0.51277757 -0.38508064 0.53861094 0.40160492 0.68886054
biznis_ryvMJK6AlbU35HKrlFT61w 0.087916635 -0.4185839 -0.13188674 0.65843946 0.79740715 0.6127141 0.7197269 0.6969044 -1.2146559 -1.0377557 0.7202269 -0.3628607 0.11512221 -0.49679682 0.03796856 0.20927483 0.10737727 0.09286938 1.6428409 1.8554269 1.001861 -0.26799145 0.2161914 0.11254576 1.0123432 -0.13287154 -0.52752376 -0.10244155 0.02076607 0.5263252 -0.5665777 -0.33169234
biznis_cMvN1j-LK64zqmT4vnl8NA -0.0049064653 -0.1343591 -0.28850973 0.63117003 1.5638673 0.094933584 -0.15707995 0.6152944 -0.3095037 -0.8813381 2.1038525 -0.40020424 -0.47191972 -0.075871445 0.4570808 0.6175704 0.6073869 -0.095928095 0.53564495 0.55953246 1.6434716 0.06429527 0.7425886 -0.029183596 0.62233293 -0.011865276 -0.09884253 0.2082973 -0.73557156 0.08875616 -0.3818891 0.25710493
biznis_M-vOSYnyuaE2TsFJF0uMbQ 0.24596377 -0.06543402 0.52486026 0.90146893 0.34109604 -0.22186625 -0.2630495 0.31405932 -0.96235913 0.06909181 -0.4339094 -1.5192156 -0.052872006 -0.6978467 0.12426327 0.08861051 -0.25018725 0.3195485 0.9988148 0.6165277 1.3292205 0.5397502 0.70746404 0.37296525 0.30557787 -1.0171417 -1.0873355 0.31301057 0.26731342 0.8536518 0.19560237 -0.47057328
biznis_HbUQ_3dlm3uCacmhTEMnuA -0.029668247 0.46078753 0.115824014 0.6731033 -0.3615389 -0.35163292 -0.27964523 0.20150843 -0.6108748 -1.5004368 0.08729978 -0.9560936 -0.5209198 -0.6651181 -0.30427098 0.8299371 1.1768205 -0.19095248 0.08713327 1.18795 1.1622244 1.2675093 1.2913321 0.09807801 0.020829208 0.22558904 -0.30606836 -0.2920204 -0.42042863 0.49649936 -0.03996856 -0.11048794
recentija_atr_useful_4 1.8998114 -0.62522966 0.48480964 0.31983393 -0.36061192 -1.3246256 1.0065507 1.1558595 0.398861 0.39923045 0.6667511 -1.5938259 0.34254685 0.36113837 1.3825662 1.0837847 -0.8554291 -0.32911822 0.71466815 -0.35422865 -0.0063053514 -0.002075803 1.6412755 -0.79330724 0.41951516 0.35159287 -0.31809506 0.89135844 0.44626763 0.34292907 -0.22290304 0.2030023
biznis_atribut_stars_3 -0.9896949 -0.6625721 0.010566742 -1.4948368 1.5928727 -0.09402926 0.0034912573 0.019152584 -0.29438916 0.57161707 0.72087085 -0.09184998 0.11020565 -0.9944224 -0.0054436154 2.8254008 0.77915406 -0.14859575 -0.41392782 1.0307049 1.7970607 0.53324413 -0.023645794 0.88694584 0.7228445 -0.5246329 0.18849154 0.6709688 -1.7927159 -2.2308285 -0.06371754 1.5859518
biznis_KcSJUq1kwO8awZRMS6Q49g -0.115399376 -0.5618109 0.4361216 -0.519551 0.58797085 -0.24884681 -0.5264079 -0.53045946 -0.18711543 -0.7931268 1.0944196 -1.3464651 0.5507626 0.4270015 0.02247856 1.3431084 0.3787383 0.34684172 0.5296359 0.18196784 1.5544614 0.34093764 1.4120132 -0.21612285 -0.4155025 -1.1381984 -0.4612506 0.018486222 -0.09383474 0.01667803 -0.20267884 0.70804167
biznis_zNzJkzZxPTeTbRIRfeU9_Q -0.0026481643 -0.7162249 0.31996226 -0.2286906 1.1014811 0.6881379 0.5580972 0.764948 -1.1656172 -0.95420545 0.64857936 -0.22739832 0.6635252 -0.032934546 -0.7931953 0.5719138 0.019807825 0.10229377 0.73607105 -0.3882304 1.0453174 -0.25349912 1.3572941 -1.2532971 -0.3917801 -0.71007645 -0.82859373 -0.02733623 0.32013023 -0.51844275 0.7529291 0.28738597
biznis_3fV9sL5LklD9ZSeONKmjkw 0.49561107 -0.22657175 -0.17546113 0.35921335 0.27865407 -0.8334915 -1.4952847 -0.10156899 -1.1017786 -0.59777844 0.71610266 -1.034394 -0.29049915 -0.59823734 0.2620872 1.3047234 -0.5853171 0.16587913 0.29338768 -0.1631022 0.4986217 0.89917696 0.9136296 -0.031866964 0.8257675 -0.28691575 -0.8202568 -0.6847795 0.9520695 -0.9512955 -0.58906907 -0.21398185
biznis_FV16IeXJp2W6pnghTz2FAw -0.54606754 0.5416638 -0.10515067 -0.27130216 0.02651058 0.20105788 0.6079104 0.3419361 -1.2062448 -1.792809 0.56842035 -0.38347572 0.14800821 -0.22198057 -0.024798978 1.6063695 0.16718858 -0.0465269 0.53933215 0.21695079 0.7113097 0.37827742 0.6198366 -0.46465808 0.9096841 -0.33153522 -0.96020734 -0.18611407 -0.12363717 -1.0549529 0.046557795 0.9070473
biznis_gGeVLZ9j_wAYKbaqgnKSJA 0.9114456 -0.028883701 0.7012453 -0.020305427 0.52732396 -0.33831814 -0.14270769 0.14378776 0.6191455 -1.2114435 0.23440813 -0.64224577 -0.69384235 -0.5133339 -0.63296676 0.10759657 0.06309318 -0.20737167 0.46834573 0.87344205 1.3684297 0.804455 1.7722663 -0.45979854 -0.55036783 1.0431519 0.29897404 -0.2535847 0.115399875 -0.36145818 0.6658694 -0.5024698
uporabnik_61HRMKC0sxwrpw_OUltiGg -0.82248855 -0.6366239 0.12618384 -0.47279394 0.048493616 0.9008617 1.2701342 1.9284375 -0.22523648 -0.04679727 0.086569116 -0.983682 0.03027342 -0.07923372 0.42154136 0.06009832 -1.2633886 0.51731056 -0.026042664 -0.57927597 -0.750579 1.0871781 1.1316531 -1.1677544 -0.028786866 0.2839725 -0.8132679 -0.119490564 -0.11307559 0.3635672 0.1920851 0.17840263
biznis_1yx2zLskVTe5WQdYjL2Apw 0.8059704 -0.27058932 0.42950135 0.09221986 0.5353823 0.9649865 0.17004438 -0.15364127 -1.3872248 -0.6682233 0.7027754 -0.56128657 -0.06962287 -0.10431129 -0.57007 1.3006681 0.0834379 0.09200491 0.8616224 0.010119944 0.68262994 0.6083398 1.0039755 -0.49202174 -0.051500753 -0.73864 0.0585115 0.150984 0.38923272 -0.9873674 0.39554384 1.0043126
biznis_xNcqwYAUeVOhe3KNC4Xjaw -1.0332148 0.5083062 0.12650964 0.21325926 0.74486643 -0.0344091 0.07612886 0.703285 -0.49651858 -0.75271755 1.7013421 -0.07182557 1.1566663 0.52677554 0.7978167 0.6158975 0.5859778 -0.26837665 1.2163471 0.61778784 1.7681216 0.119871266 1.4856904 -0.9736702 -0.44909254 0.79199904 -0.9284778 -0.2975907 -0.5255917 0.52484053 -0.1612573 0.92550313
biznis_YrIfgzLj0DPStJ1ESAS_Qg -0.5158725 0.09494426 0.8119663 0.32164276 0.31411028 -0.74619305 0.24904054 -0.08729761 -1.2787821 -0.38390958 0.2523599 -0.09863238 0.72710466 -0.5576563 1.0960726 0.06546856 -0.36583388 -0.47633108 1.4052002 0.47051814 1.4732306 0.7025825 0.98791915 -0.155555 0.31064576 -0.42696267 -0.93180656 0.025640806 -0.41842037 0.8834056 -0.17342192 0.20155634
biznis_Q_Rwcv9APBLggk2KAsBEvg 0.33000153 0.08156569 0.22893016 0.58525217 0.43869543 -0.16590844 -0.5379965 0.124612145 -1.353881 0.32734242 -0.08720979 -1.9337387 0.34319142 -0.4682121 -0.07285955 0.1124883 0.5025545 0.7435777 1.02993 0.5177856 1.0941961 0.20820141 0.7913809 0.2308928 -0.1675782 -0.73319733 -0.5879944 0.58479255 -0.020833123 0.15741454 0.03563253 0.13573089
biznis_-5RN56jH78MV2oquLV_G8g 0.34848762 0.5938684 -0.26350218 0.43205354 0.2633554 0.60832363 -0.10488468 0.41696134 0.08036751 -1.1320069 -0.012277279 -0.9285812 -0.37312302 -0.29246917 -0.76699513 1.2248218 1.2379186 0.01791903 0.8126688 1.1555264 0.74089843 1.614471 1.2390558 -0.3925966 -0.44470906 1.2004552 -0.16637121 -0.5032159 -0.5405888 0.18578747 0.3777739 0.30415076
biznis_rBPQuQgTcMtUq5-RYhY2uQ 0.40130273 -0.3263123 0.57669675 0.10194005 0.44060138 0.15590309 0.04270673 0.52620095 -1.091822 -0.6963969 -0.1386186 -0.38320363 -0.26840258 -0.66780794 -0.16175514 0.9686946 0.455919 -0.3785979 -0.36067918 0.52429336 1.7326046 0.59266925 1.0054555 -0.24642712 0.10948708 -0.9218232 -0.25427634 0.7119253 0.19417314 0.23506564 -0.022746911 -0.06284303
biznis_vEeiIvhzz29rO-6EPFqkjQ 0.7533863 -0.8575205 0.32365355 0.2981292 0.94051164 0.25776085 0.050079532 0.726611 0.048425242 -1.2571746 0.08030458 -0.7738704 -0.6337089 -0.25960565 -0.8838293 0.657686 1.0803708 -0.69718784 0.7808103 0.8217368 0.69775563 0.7006338 0.99082935 -0.60751206 0.063486874 -0.25986072 -0.27228194 0.6445092 0.29711634 -0.22900015 1.0017617 0.23482539
biznis_Ensu96ecI0OReupNS2x7ig 0.8058985 0.22564274 0.33916843 1.0452393 0.20604825 -0.6096323 -1.0447246 0.060755778 0.30226928 -0.5147947 0.2710395 -0.41066852 -0.7933115 -0.8209355 -0.46870646 0.70167965 0.38451356 -0.04609921 0.50095206 0.404318 1.2189738 1.4262499 1.4704869 -0.48602995 0.20686236 0.86785865 0.06891928 0.2934204 0.07793087 -0.29242006 0.3009512 0.38141593
biznis_Zx8_4zKdDBSO3qGrkukBIA 0.6479051 -0.18019898 0.8380332 0.14028175 1.2956628 0.04178199 -0.5376489 0.17314893 -1.0318902 -0.44388187 0.37898815 -0.7731826 -0.51887953 -0.49659798 -0.47852615 1.048529 -1.2556533 0.6049928 0.07158325 0.18296476 1.1494346 0.23027088 0.82606524 0.29963893 1.3636332 -0.87021434 -0.3048165 0.5982373 0.66026264 -0.65055287 -0.028428245 -0.68095976
biznis_Z0kyK8wCBNGkkUT9UrMWcg 0.2767917 0.78356016 0.4995422 1.2187433 0.5215055 0.3751523 -0.116836965 0.17636561 -0.6111134 -0.9698316 0.4530788 -0.16361319 -0.04708485 -0.17793646 0.27854693 -0.038043335 -0.3949979 0.29413906 0.7953455 0.36581892 0.8100659 1.477888 1.5786558 -0.48030677 0.1903368 0.89892596 -0.3316367 -0.3782409 -0.6038902 0.8256608 0.3106605 0.15153852
biznis_sL4n5lhxqoZ5l0d8gwIPyA 0.20505759 -1.0508649 0.80657876 0.3460692 0.99371785 0.109748304 -0.0316451 -0.05464399 -0.08476688 -0.33539662 0.4647192 -1.3224251 0.3095255 -1.3029113 0.28929928 -0.5295699 -0.13275978 0.39327434 0.54908055 1.0217419 0.72730327 -0.019845687 0.4535085 -0.027877595 0.24814628 -0.53541034 -0.82065314 0.67812884 0.30308986 0.23908316 0.925242 -0.7981159
biznis_eLPld7Q17XxlclFGzZQX5g -0.45628017 0.011862896 0.33789843 0.7671025 0.322402 -0.8600521 -0.8450102 -0.15930685 -1.4388751 -0.07642931 0.71877366 -0.76355886 0.9154062 0.0999379 0.38382426 0.36515528 -0.3914825 0.40719885 1.753964 0.51522774 1.4008447 0.5899451 0.85930556 -0.21248062 0.72663957 -0.67433274 -0.71462774 -0.119251356 0.14121594 0.5966492 -0.75555295 0.6181408
biznis_V6BYjHM9SnXscfkln3hCdA 0.9040689 -0.63075 0.4493635 0.18461013 1.002901 0.9503287 0.009043869 -0.0014152415 -1.2331218 -0.50151837 -0.24642695 -0.7425483 -0.002720677 -0.5272305 -1.2554575 0.5343724 4.639083e-05 0.29375792 0.76080555 0.61142594 0.6192524 0.20190534 1.1427927 -1.0517173 -0.3048436 -0.7742357 -0.3748408 -0.046914473 0.7814091 -0.90989256 0.20102498 0.004452777
biznis_3OB5gQqibKGTzx9R1w7wKQ -0.751418 -0.4092046 0.6444122 0.30280066 1.0618019 0.42875972 -0.38590324 -0.009068589 -1.1548781 -0.2882575 1.8138354 -0.21912166 0.6206085 -0.16090025 0.5635357 -0.27362433 -0.5839986 0.6346849 0.8772822 0.3794307 0.81866354 -0.4504781 0.77599454 -0.697854 0.74753594 -0.52679145 -0.30702555 0.7070542 -0.3097685 -0.7563932 -0.11345267 0.39120942
biznis_FURgKkRFtMK5yKbjYZVVwA -0.014334765 -0.73806113 0.9098687 0.0995625 0.60502607 -0.492255 -0.8885223 -0.6632487 0.08612529 -0.13647299 0.2149079 -1.1399558 0.6518718 -1.2676985 0.33563808 -0.5979967 -0.23354341 0.95718735 -0.049362104 0.7219546 1.0054847 0.24816519 0.9460296 -0.2987319 0.24324921 0.23909116 -0.64706486 0.31234038 0.5518354 -0.28501552 0.41942495 -0.27731487
biznis_c12WDNrP2wyQgbnEYDdxCw 0.32145986 0.6935222 -0.07608162 0.48558614 0.87684995 -0.18248011 -0.47571284 0.3994605 -0.09637393 -0.789376 0.121041514 -0.07695943 -0.7017594 -0.57431734 0.33096394 2.2215705 0.34218156 -0.37854782 0.37086517 -0.15198226 0.93008924 1.5670534 1.2264379 -0.39112085 0.22019686 0.9315848 -0.4669635 0.1968443 -0.3336363 -0.34538996 0.100988224 0.7016105
biznis_7q1FpSXbE6XtLNg518pxDA -0.53119713 0.038793273 -0.12600681 -0.6459679 0.3749747 -0.13146706 -0.7130008 0.05132927 -0.28341624 0.24379581 0.5339611 -1.4125826 0.6095663 -0.8157716 0.41317523 0.72407633 -0.02282345 0.4504809 0.48736244 0.020025728 0.8059901 0.88139373 0.04526722 0.3112736 0.3976608 0.113969184 -1.7398797 -0.5655263 0.6627658 -0.73080033 0.6484528 0.08512616
biznis_YacTpiq0ZptFcXD7I-kdGA 0.3824831 0.89238966 0.066720374 1.1146654 0.44163507 0.5430755 -0.20276012 0.6263101 -0.8693195 -1.3101722 0.77045196 0.20065702 -0.71591854 -0.38071463 -0.31102565 0.8970824 -0.17424144 0.07517565 -0.0023960157 0.26567352 0.66154116 0.9300835 1.4976219 -1.0351745 0.68652 0.9387198 -0.2712844 -0.4111693 -0.1382609 -0.5472734 -0.09351709 0.0391212
biznis_RhbOa-Ft3sZB4B_1j5LfyA -0.06258864 -0.6426756 0.40237164 -0.14795078 0.65155506 0.88138485 0.3498487 0.02735371 -1.1397979 -1.2081759 1.2637936 0.116102725 0.3137232 -0.5705856 -0.22750926 0.26374453 0.08095581 -0.040419027 0.7256638 -0.07995714 0.32982823 0.30039507 0.8879562 -1.1198078 -0.05966097 -0.12512404 -0.5369206 -0.03337261 -0.19968048 -1.2436501 0.78932434 0.61519843
biznis_yD1dRYi7USzhYVKiqZ7JVg -0.15384129 0.7360351 0.5181784 0.45736966 -0.36240986 -0.4624638 -0.22152652 -0.101422094 -1.505011 -0.8074008 0.2243072 -0.346269 -0.21545418 -1.1173657 0.05214777 0.31535146 -0.8685971 0.018150141 0.2755349 0.18558398 0.6876301 0.89893275 1.1331024 -0.27521238 0.3647471 -0.12212016 -0.8530025 -0.43555352 -0.018491043 -0.5139817 0.09037839 -0.6100446
biznis_zTCCbg7mGslxACL5KlAPIQ -0.17949395 -0.4490825 0.19214684 -0.05353628 0.73920494 0.14026974 0.25085956 0.75463706 -1.2888588 -0.8821392 0.30836773 -0.6255273 0.24317898 -0.30528003 0.044801205 1.4936507 1.3248864 -0.6092565 0.7309555 0.85007393 1.6200303 0.3150561 0.5167658 -0.08705727 0.53232986 -0.9272639 -0.47702962 0.5959911 -0.31383324 0.3440292 -0.40837032 0.5908963
biznis_8zL3V6rmFKBess3bxPLAoQ 0.68077034 -0.6043592 0.61825067 0.039731346 1.3129008 0.37891838 -0.3003801 0.36651054 -0.3544812 -0.880323 0.2645165 -0.7143301 -0.6439182 -0.6881397 -0.86927176 1.1069524 -0.012497888 0.06907335 -0.33577892 0.35398597 1.4093925 0.23162435 0.94346464 -0.27376312 0.67392224 -1.1794465 -0.22599119 0.79094744 0.48053697 -0.7289326 0.1361742 -0.3509974
biznis_DxUn-ukNL27GOuwjnFGFKA 0.29515684 0.51742625 0.2651822 1.1167034 1.4571046 0.53197896 0.26802877 0.56785685 -1.0775168 -0.5731018 0.9176711 0.16637279 -0.45645377 -0.5664714 0.82485163 0.7722363 -0.74776936 -0.018667687 1.0072948 0.33442032 1.1087914 0.89640576 0.94944835 -0.0032400356 0.9818774 0.24500975 -0.22715218 0.18584144 -0.727464 0.7488548 -0.14943784 -0.01624722
biznis_vSf0pqvaLp5sVSjJPeOqqQ -0.13711573 -0.40387803 -0.30972853 0.3565561 0.14164154 0.03197274 -0.8114967 0.6043869 -0.8496551 -1.1284642 1.1421063 -2.1037552 -0.099160515 -0.48103172 -0.30166107 -0.118991785 0.47442657 0.537836 0.47344634 0.5648881 0.6131796 0.25958487 0.67422193 0.26342276 -0.015491567 -0.55236953 -0.567704 -0.41828018 0.37182394 -0.6396887 0.49141914 -0.5415957
biznis_9Bnc9YP0n5cR57xkP6fQmQ 0.41263846 0.34664357 0.1365001 0.9262508 0.22091086 -0.6014586 -1.0512289 0.47051096 -0.38717702 -0.30322504 0.048618235 -1.2297722 -0.38962898 -0.44946113 -0.69095165 0.14575332 0.3768882 0.3943828 0.98333895 1.2456139 1.1468186 0.9803986 0.835478 0.0034226044 0.7027136 0.32949266 -0.23085977 0.021528289 -0.042527188 0.25058126 -0.37799 -0.62728953
biznis_OE5nAmaSVaopeRS1Cs9Kuw -0.05595764 0.26059285 0.16642292 0.6168054 0.84320086 -0.3636813 0.3995296 0.50963575 -0.4292801 -1.4082909 0.7262365 0.1102346 -0.20962559 -0.43404806 0.77270806 0.22042444 0.31416735 -0.07684219 0.6728032 0.28286722 0.65358436 0.5184803 1.3293748 -0.06201486 0.41359708 1.4744155 -0.6542039 0.07122394 -0.5940605 0.34043598 0.69166255 0.20475386
biznis_ZP6qFq7LUh6Tr7WHPoOW6g 0.8140012 -0.88611066 0.38507336 -0.3083859 1.4475453 0.11233474 0.1849502 0.10213235 -0.12788068 -0.8546317 1.3813412 0.33952087 0.3045295 -0.85169965 -0.29397976 0.22481157 0.05995833 0.08480084 -0.014699536 -0.24501175 0.9919214 -0.37077639 1.6706394 -1.242618 -0.7116479 0.6946494 -0.21608387 0.20114473 0.1383601 -0.99737626 0.57943904 0.019760793
biznis_SLyacGZuMUKqrQJEooSkjw -0.13598734 0.41575682 0.15522705 0.5472585 0.4571702 -0.43255857 -1.0878644 -0.10745736 -0.97730184 0.09678605 0.53405416 -1.3396538 -0.17822373 -0.09423444 -0.45338568 0.56170636 0.606897 0.3182083 0.87579364 0.74540097 1.1321769 0.7348597 0.6742377 -0.03552337 0.07405021 -0.47798952 0.1714925 0.68080485 -0.24397078 -0.46506482 -0.36170092 0.41743234
biznis_z67yrh03lRSANrpPsRcTfw 0.13735452 0.20150654 0.53832126 0.5488443 0.9627198 -0.441675 -1.0173576 -0.34588912 -0.69205254 0.61973655 0.009059105 -0.6990178 0.61129814 -0.3015153 0.10935338 0.46811485 -0.96570027 0.75166583 0.7172492 -0.096915394 1.4931391 0.7353171 0.8532384 -0.30210078 0.833123 -0.38118356 -1.1214045 0.018474039 0.5900663 0.22461666 -0.5109853 0.25214118
biznis_LLDGTT7FExklkQvHebEjRg -0.6121124 0.5272704 0.17760023 1.1505055 0.01154606 0.17489365 -0.14161624 0.6250996 -0.8655225 -1.2096096 1.2036386 -1.0469506 0.03348263 -0.37695956 0.34196433 -0.02162598 0.9345171 0.112104945 0.2274876 0.8762654 1.2722718 0.345658 0.9276958 -0.43124476 0.21625672 -0.14338751 -0.76086503 0.14850982 -0.75997484 0.5062938 -0.015277564 0.17056997
biznis_gkWEjZIVcrUerEzed6IKpg -0.19686694 0.2273666 -0.030787416 0.81096286 0.5708911 0.19003369 -0.8104525 0.23988034 -1.2381638 -0.6857867 0.22986205 -0.47210684 -0.0049101436 -0.1760406 0.112266436 0.87937295 -0.4712103 0.41708466 1.0346208 0.25445995 0.9939303 1.2918156 0.52699685 0.21374671 1.6667144 -0.63798153 -1.1207037 -0.5414017 0.35059217 -0.075122304 -0.68016034 0.3606082
biznis_ieYiud3trM-9e7E8YUhK0g 0.1510851 -0.96423084 0.07903695 -0.49297285 1.3484473 0.55481946 -0.09495228 0.20130965 -1.4289949 -0.3272479 0.7164434 -0.53006506 0.8263918 -0.181984 -0.810244 0.59096986 -0.27355254 0.63409084 0.9983303 -0.19040695 0.65807647 -0.38439855 0.8033913 -0.85557944 0.3751403 -0.8167356 -1.2984495 -0.30888587 0.9860233 -1.2082686 0.2982956 0.44210845
biznis_rZbHg4ACfN3iShdsT47WKQ -0.45965672 -0.14829701 0.42852473 0.24948442 1.2956487 0.71726376 0.015610854 0.29888317 -1.5051768 -0.27418175 0.53886026 -0.8866745 0.5343169 -0.43373126 0.6259378 -0.030554436 -0.27526164 0.33057526 0.7569103 0.8332957 1.1042138 0.31134042 0.0891649 0.55366486 0.87762356 -0.3595285 -0.51029736 0.5627257 -0.21457098 0.24186093 0.057755034 -0.0878674
biznis_rNahhyqDlouyDMHh57p3ug 0.59801126 0.30781755 0.025912892 1.2229878 0.85284305 -0.20516178 -0.5566659 0.64953935 -0.09966445 -0.5780078 0.45715976 -1.0038784 -0.45952088 -0.026805436 -0.62538046 -0.1972214 0.538163 0.41745114 1.3503113 1.0367059 1.0738174 0.35794684 1.6564589 -0.5121374 -0.3306219 0.8653146 -0.102653824 -0.22157457 -0.15606317 0.26841092 -0.115587786 -0.37745738
atribut_vrednost_Caters_false 0.41311452 0.12973666 0.9651586 -0.30141094 0.47720435 -0.5343672 -0.112115204 0.26902813 -0.49616987 -0.7244527 0.8834802 -0.5473576 -0.8473761 -0.20956439 -0.113674924 0.023877967 0.20366174 0.9162021 -0.1317882 0.90116125 0.76011634 0.80518067 0.13179131 -0.79625773 -0.14182942 -0.07041198 -0.6118751 0.6453493 0.4943897 0.09714107 0.11771703 0.50924397
biznis_Lp-A-JNRUUH72uou5-pMtQ -0.6893694 -0.25968876 0.3917304 0.09569156 1.0548052 0.28661487 -0.070435226 1.0637854 -0.71093166 -0.30100036 0.7321466 -0.6091834 0.73537004 -0.48774618 0.15752989 -0.70557636 -0.5170944 0.2700611 0.70996743 0.348669 1.5135746 -0.055823375 0.33373052 -0.17639332 0.6955926 -0.47240818 -1.5553378 0.3392026 0.06063263 0.16846342 0.49369457 -0.55488026
biznis_DjOxXobyGDwWt89q4z1twg -0.39216554 0.14968388 0.35915044 0.62744194 0.27650997 -0.5399333 -0.7271805 -0.69352597 -0.12210696 -0.73967844 1.7773952 0.21971335 0.130526 -0.37069425 0.7692221 0.7512076 -0.8157738 0.5096882 0.7318825 0.15442745 1.0499872 0.4688813 1.0590911 -0.86470246 0.88454264 0.6014698 -0.71652913 -0.27456215 -0.30796713 -0.36231384 -0.71410644 0.27743322
biznis_NK-8zniVfA21IQoQCynrDg 1.1416798 -0.20031136 0.3658208 -0.2367978 1.3137063 -0.13456039 -0.6887103 -0.3532561 -0.5130766 -0.4890216 -0.39036736 -0.5346429 -0.7344719 -0.8416526 -1.2907196 1.6012479 -0.15631604 0.14407967 0.6310513 -0.37377807 0.6422509 1.4616598 1.1150231 -0.29739907 0.59275115 -0.030993013 -0.26872087 -0.27613923 0.3789986 -1.4709536 0.3909072 0.018372241
biznis_Z6aaze-cgaYKKXlpuH9LqA 0.32952783 0.3312421 0.4010862 -0.6585756 1.4479557 -0.36248058 0.12376867 -0.10247346 -0.6489914 -0.8388615 0.23041375 -0.013826356 0.26487038 -0.21736781 -0.43814567 1.157278 -0.6227806 0.3128787 0.7312774 -0.83413833 0.46707296 0.6445437 0.9097341 -0.49632654 0.8651146 0.7971944 -0.6329515 0.18772006 -0.039949242 -1.4190071 0.6169629 0.5848039
biznis_zp713qNhx8d9KCJJnrw1xA -0.20326336 0.24836177 0.91301435 0.077934414 0.66493225 -0.00013340518 -0.3824744 -0.34397796 -1.186856 0.038754378 0.47952688 -1.0286154 0.778321 -0.60890853 1.0434359 0.23626758 -0.54683304 0.8910029 0.28644362 1.345048 0.66887575 -0.1737547 0.8464747 -0.19654123 0.47065973 0.36400458 -0.72349083 0.4276611 -0.254043 0.37330094 -0.6682294 -0.6131188
biznis_9c_9SX-7hB7HW8KatQbD8g 0.67279905 -0.2024436 0.3937157 -0.561708 0.8420938 -1.1773802 -0.5222681 -0.2524814 0.05781448 -0.37922302 -0.0064107925 -0.15597537 -0.18450996 -0.626264 -0.22553281 1.0732367 0.022208327 0.11197043 0.5476441 -0.7583808 0.96575594 0.7784344 1.2527069 -0.5605304 0.5552266 0.21154325 -1.1513312 -0.16274528 -0.01764878 -0.9640111 0.08019209 -0.030504206
biznis_jh7S78tc9oXCDjAjP_OrLw -0.48622584 0.7077689 -0.09450085 1.1845244 0.79752445 -0.056874823 -0.6319731 0.2534054 -1.086057 -0.83364195 0.86895305 -0.38985476 -0.20416823 -0.30226147 0.7510679 0.4557099 -0.4126017 0.40483165 1.3666525 -0.17733465 0.43397802 1.2212371 0.81605095 -0.17480636 1.0702735 0.201527 -1.0773411 -0.31020272 -0.50913346 -0.22899027 -0.08654229 0.7465556
biznis_npfVfumxVAkQNYpY1fSvew 0.57329303 -0.8768361 0.3960692 -0.7029768 0.80448836 -0.7274282 -1.0402957 -0.27441013 -0.77308047 -0.6846771 0.69288814 -1.1308293 0.18661176 -0.17815 -1.0764897 1.2222987 -0.4932254 0.50018567 0.5725815 0.26811162 1.0509723 0.13580365 0.9736959 -0.10017848 0.7585991 -0.7435444 -0.29881424 -0.099582374 1.0045301 -1.1722357 -0.21548055 -0.19721192
biznis_5IWu0xhlZEopvIz3w7o_3w -0.5327515 0.8167256 0.060654394 1.1699239 -0.2525899 0.081713036 -0.6014434 0.56813234 -0.6770638 -0.83348966 1.1629337 -0.481397 0.15327209 -0.42231867 0.15217425 -0.15061733 0.4098337 0.43373868 0.6170566 0.8752177 1.2514368 0.6505696 1.0823016 -1.0045769 0.30356142 0.49504316 -0.5836958 -0.031942878 -0.52901703 -0.018968172 -0.2132495 0.5155301
biznis_-2n-OHbbwIv3SY8RP9bgTQ 0.3013119 0.21598116 0.4180595 0.6495296 0.58904845 -0.06763274 -0.2772761 0.6311519 -1.3567995 0.0017071135 -0.028398357 -1.405823 0.32199708 -0.18000762 0.19863622 0.29661667 0.120101355 0.3429154 1.1379478 0.7565675 1.3827869 -0.0011754273 0.72790754 0.105957665 0.36860487 -0.6985737 -0.5472086 0.7463212 0.22275698 0.31056365 -0.21817586 0.3329302
biznis_Xsp9Dy4PQgAssCVk2-f73w -0.352664 0.1142295 -0.08675087 -0.7438925 0.64643335 0.17590038 0.22276768 -0.06618202 -1.0970755 -0.9653011 0.8068287 -0.17425478 0.21506605 -0.4835002 -0.27147356 1.3989623 -0.042892672 0.113919735 0.8214966 -0.3101471 0.37875813 0.7012005 0.25999463 -0.13629338 1.0824598 -0.0297928 -1.213915 -0.2515636 -0.037104137 -1.5308465 0.4675152 0.7655151
biznis_N50HceZf1595UtU867u4uQ 0.28461057 0.3453011 -0.20986193 0.6012468 0.40668055 -0.56362194 -0.9550967 0.5975354 -0.9239271 -1.188358 0.17508572 -0.6300032 -0.45376712 -0.29402423 -0.88925236 1.0253557 0.13334225 -0.11185267 0.7281567 0.7017413 1.063169 1.6757396 0.69284344 0.40810382 1.4361143 0.05883433 -0.35927132 -0.56310034 0.35064232 -0.12847266 -0.18857306 -0.106984094
biznis_50nln4YPr0QDo_v1uBmHfg 0.7017402 0.12127079 0.81595826 0.009181254 0.71374464 0.5703144 0.19236596 -0.03610962 -0.6085874 -1.4164356 0.44489023 -0.039755613 -0.52159464 -0.66176546 -0.8848914 0.99653244 -0.25660506 0.45687693 -0.18943746 -0.03937863 0.66134775 0.3667464 1.447181 -0.86121887 0.44016498 -0.13010778 -0.12131273 0.61185366 -0.1927582 -1.4484849 0.5787241 0.18880402
biznis_vPnwX30Gn0oa4dVBL0W4Ww -0.86779916 -0.0836412 -0.01610468 -0.15494967 0.26027548 -0.69634205 -0.48861116 0.6185551 -0.8849949 -0.4024413 0.7867044 -0.7134214 0.89686066 0.16908821 0.5915927 1.0974352 0.05911732 -0.14921023 1.2516153 0.5024546 1.5145608 0.18159851 0.44114208 -0.20832641 0.9447466 -0.49025506 -1.8780085 -0.35346857 0.5363717 0.15246303 -0.41681084 0.49121413
